#include "w.h"

#include <avr/pgmspace.h>

const float rnn_in_w[N_CHANNELS][N_HIDDEN] PROGMEM = { {
0.00962, 0.03397, -0.08147, 0.03609, 0.05392, 0.01328, -0.07869, -0.04997, -0.10751, 0.00164, 0.07219, -0.10258, -0.07851, 0.02957, 0.04071, 0.12752, 0.00017, 0.09201, -0.02501, 0.11339, -0.02219, 0.02189, -0.0366, 0.09955, 0.00346, 0.00944, -0.03761, 0.05509, -0.13335, 0.03407, 0.01985, -0.05665, -0.07742, 0.04411, -0.0105, -0.00155, -0.07242, -0.04983, -0.01019, 0.00478, 0.02284, -0.04066, 0.12113, 0.03375, -0.01743, -0.02889, -0.1448, -0.03317, -0.06193, 0.0335
}, {
-0.6998, 0.02439, -0.12519, -0.0198, -0.63752, 0.01618, -0.34843, -0.1038, 0.19006, -0.03533, -0.05352, 0.37398, -0.01515, 0.08858, -0.17573, -0.1334, 0.18057, 0.00603, 0.01358, -0.02492, 0.06776, -0.09436, 0.09096, -0.05811, -0.0961, -0.09272, 0.03392, -0.02992, 0.04557, 0.07181, 0.24242, 0.13557, 0.28424, -0.01572, -0.12024, 0.23668, 0.0369, 0.07601, 0.03775, -0.06782, -0.0659, 0.07952, 0.13129, -0.05424, 0.03082, -0.05394, 0.14497, 0.15945, -0.12884, 0.00759
}, {
-0.43375, -0.0836, 0.05937, -0.10917, -0.16391, -0.08358, -1.67718, 0.36159, -0.02896, 0.09501, -0.01977, -0.20235, 0.0595, 0.24474, -0.36578, 0.5793, 0.33039, 0.14997, 0.0569, 1.12995, 0.01014, -0.04706, 0.05118, 0.21016, 0.03522, -0.29493, -0.06424, -0.11794, -0.32823, -0.04701, 0.82835, 0.22127, -0.10102, 0.31251, 0.7805, 0.14638, 0.17548, 0.02107, -0.0513, -0.16223, 0.04451, -0.08995, -0.10698, 0.60363, 0.28627, -0.16625, 0.17086, 0.33812, 0.6996, 0.53073
}, {
0.60917, -0.26786, 0.17855, -0.49908, 0.14655, 0.11971, -1.55983, 0.40953, 0.18388, -0.0942, -0.15786, 0.48235, -0.01262, 0.14768, -0.60192, -0.00532, 0.66797, 0.13719, 0.03125, 2.13706, -0.24735, -0.38541, 0.04141, 0.02307, 0.72539, -0.04364, -0.29432, -0.30196, -0.0321, 0.07126, 0.63122, 0.39704, 0.37153, 0.09716, 0.32822, -0.06805, -0.1258, 0.23318, -0.05679, -0.24729, 0.09255, 0.10982, -0.58599, 0.20166, 0.60327, 0.47977, -0.11838, 0.39749, 0.5604, 0.50416
}, {
-0.3485, -0.3459, -0.06682, -0.44428, 0.24171, 0.46565, -0.47634, -0.50027, 0.03837, -0.1408, -0.20289, 1.16486, 0.74829, -0.098, -0.18679, 0.34358, 0.66467, 0.28799, -0.22332, 0.49655, -0.94763, -0.41425, -0.34088, 0.02462, 0.25535, 0.27651, -0.38441, -1.08701, 0.55459, -0.30673, 0.66956, -0.05373, 0.64159, 0.30041, -1.13586, -0.02224, 0.12469, -0.11489, -0.21997, 0.0668, 0.33095, -0.10641, 0.31524, 0.23359, -0.0458, 0.09234, 0.00401, 0.4475, 0.51534, 0.13189
}, {
-0.79391, -0.59678, 0.11475, 0.37818, 0.58705, 0.54141, -0.58439, -0.52795, -0.29091, 0.00227, 0.046, 0.00793, 0.03293, -0.06202, -0.09175, 0.84458, 0.82412, 0.21875, 0.29301, 0.6679, -1.32884, -0.77588, -1.14379, 0.2714, -0.49628, 0.0854, 0.02492, -1.34834, 2.25158, -0.56627, 0.55443, 0.04087, -1.14977, -0.24941, -0.66838, 0.03481, -0.2382, -0.11254, -0.02525, 0.11967, 0.26183, 0.16236, 0.94686, -0.12732, -0.47787, -0.35193, 0.27862, 0.64265, 0.86672, 0.67936
}, {
-0.45179, -0.63992, 0.02696, -0.32485, 0.27313, 0.67995, -0.36736, -0.25949, -0.74293, 0.18556, 0.22974, 0.06384, 0.25388, -0.34448, 0.02116, 0.36828, 0.96295, -0.09912, -0.21967, 0.60314, -1.48478, -0.81314, 0.21912, -0.08316, 0.912, 0.10064, -0.02855, -1.21623, 0.41005, -0.63053, 0.13107, 0.03805, -0.91083, -0.29413, -0.62958, 0.10953, -0.02143, 0.23636, 0.44814, 0.26978, -1.50759, 1.06995, -0.00777, -0.146, -0.33304, -0.60915, 0.17532, 0.66502, 0.50803, 0.35481
}, {
-0.64256, -0.56782, -0.02693, -1.00051, 0.18518, 0.38712, 0.19804, -0.17996, -0.16266, -0.03622, 0.11639, 0.03272, 0.08397, -0.07595, -0.01366, -0.16759, 0.54528, -0.29911, 0.68588, 0.31291, -1.13988, -0.67278, 2.05538, -0.04172, 0.52802, 0.48103, -0.06652, -1.42657, 0.10357, -0.69301, 0.34695, 0.05902, -0.69164, -0.28908, -1.36498, 0.29819, 0.27728, -0.00428, 0.22356, 0.12483, -0.20349, -0.65286, -0.80388, 0.00356, -0.36589, -0.4585, -0.23818, 0.70509, 0.45769, -0.10921
}, {
-0.66797, -0.3864, 0.0358, 0.07008, 0.59577, 0.49226, 0.4414, -0.29012, -0.46214, 0.03549, 0.24427, -0.16917, 0.12871, -0.05826, 0.02331, 0.16376, 0.19537, -0.0596, -0.68802, 0.02868, -0.9954, -0.72652, 0.18695, -0.04511, -0.08121, -0.0117, -0.11928, -0.89821, -0.03761, -0.55974, 0.36078, -0.04558, -0.31153, 0.1079, -0.66575, 0.27622, 0.20768, -0.00423, 1.10714, 0.00587, 1.58868, -1.27027, -0.4699, 0.10807, -0.26445, -0.66035, -0.00907, 0.55285, 0.78723, 0.18125
}, {
-0.33695, -0.09682, -0.1553, 0.70987, 0.27069, -0.19738, 0.11402, -0.23873, 0.00057, -0.08447, 0.19449, 0.05685, -0.26173, 0.20367, 0.09431, 0.17103, -0.92705, 0.55438, 0.72542, -0.61217, -0.76444, -0.73476, -1.37654, 0.04138, -0.46443, -0.42684, -0.35744, -1.12825, -0.11368, -0.56612, -0.0119, -0.03395, 0.47124, 0.1326, 0.07237, 0.67145, 0.33328, -0.0825, 0.84699, 0.14968, 0.95036, 0.32792, -1.53143, 0.23364, -0.33141, -0.30273, -0.54611, 0.24878, 0.57556, -0.23337
}, {
-0.62783, 0.02698, -0.03567, -0.09746, 0.08894, -0.81518, 0.81921, 0.11948, 0.06719, -0.09963, 0.13619, 0.06244, 0.25849, 0.21071, 0.1195, 0.47848, -1.04115, -0.45727, -0.32877, -0.46418, -0.70703, -0.79092, -0.00298, 0.06763, -0.64521, -0.5018, 0.36156, -1.33514, 0.01736, -0.52759, -0.35537, -0.04232, 0.62127, -0.04519, 0.22995, 0.40876, 0.53767, 0.07655, 0.37693, -0.16637, -0.34835, 1.50391, -1.01897, 0.22505, -0.19806, -0.39802, -0.90511, 0.75883, 0.36716, -0.15514
}, {
-0.26807, -0.03233, 0.32059, -0.21058, 0.7197, -0.98066, 0.9386, 0.07072, -0.00539, -0.6118, 0.01152, 0.06567, 0.33536, -0.18928, 0.29027, 0.37337, -0.57444, -0.63488, 0.092, -0.38005, -0.70578, -0.53415, 0.4651, -0.09446, -0.00429, 0.08553, 0.55346, -1.07242, 0.05948, -0.36487, -0.74618, -0.03834, 0.60621, -0.01104, 0.49638, -0.64132, 0.31002, 0.29598, 0.17837, -0.5398, -0.73561, 0.28088, -0.55305, 0.17425, -0.21142, -0.60495, 0.40828, 0.50748, -0.06766, -0.21748
}, {
-0.29852, -0.00243, 0.04268, -0.02976, 0.64398, -0.83791, 0.5644, -0.41312, -0.25944, -0.44059, -0.02533, 0.26901, 0.17096, -0.65577, 0.12103, 0.35543, -0.59091, 0.10358, 0.037, 0.01183, -0.59528, -0.00201, 0.11028, -0.09516, 0.47232, 0.28384, 0.56297, -0.09379, 0.09015, -0.64423, -0.4589, -0.04372, 0.30069, -0.0328, 0.46818, -1.21345, 0.15307, 0.24619, -0.12384, -0.86648, -0.04378, -0.82432, -0.57674, 0.28144, -0.39889, -1.26015, 2.13262, 0.02813, -0.49217, -0.09165
}, {
-0.6534, 0.21949, -0.96017, 0.02769, 0.51309, -0.92263, -0.00827, -0.3283, -0.79293, 0.90334, -0.11581, 0.31225, 0.14565, -0.63698, 0.09365, 0.41658, -0.79364, 0.43058, 0.1454, 0.16543, -0.63081, 0.11334, -0.17873, 0.02373, 0.28045, 0.32576, 0.28936, 0.58575, -0.10004, -0.73274, -0.30406, 0.10961, 0.18504, -0.07623, 0.10304, -1.28696, -0.03916, 0.06323, -0.2304, -1.01435, 0.03147, -0.29902, -0.48378, 0.50159, -0.3111, -1.88497, 0.43862, -0.68581, -0.40031, 0.06956
}, {
-0.93738, 0.29189, -0.37877, -0.12362, -0.06924, -0.7118, -0.07019, 0.00331, -0.83509, 1.64896, -0.17794, 0.41145, 0.28056, 0.48041, -0.01839, 0.49401, -0.54032, 0.35217, 0.01589, 0.25451, -0.65174, -0.22323, -0.05982, -0.45886, -0.19908, -0.19522, 0.2456, 0.49419, -0.08322, 0.08489, -0.27677, -0.09331, 0.60607, 0.01571, 0.0468, -1.18871, 0.14024, -0.1472, -0.07009, -1.01664, 0.05972, 0.08449, -0.01803, 0.43738, -0.29005, -1.75771, -1.33096, -0.76732, -0.22313, 0.27206
}, {
-1.00933, 0.25664, 1.7963, -0.09864, -0.38279, -0.82763, -0.12679, 0.18277, -0.85462, -0.29584, -0.31993, 0.07017, 0.11019, 0.94203, 0.0102, 0.71916, -0.69975, 0.48449, 0.23944, 0.10597, -0.83529, -0.54567, -0.03815, -0.42039, -0.42615, -0.80343, 0.23882, 0.28365, -0.1371, 0.37085, -0.09122, -0.77281, 0.37722, 0.09322, 0.08, -1.19331, 0.30526, -0.16887, 0.04892, -0.91201, -0.00886, -0.0225, 0.4164, 0.261, -0.19399, -1.60934, -0.8668, -1.11847, -0.17342, 0.35516
}, {
-0.02649, 0.19466, 0.58841, 0.0701, -1.16268, -0.82746, -0.03959, -0.03295, -0.93438, -0.91096, -0.66758, 0.80879, -0.2403, -1.24779, -0.13276, -0.16158, -0.58192, 0.12322, -0.01159, -0.3254, -0.78801, -0.29322, 0.06258, 1.48822, -0.23326, -0.51624, 0.00434, 0.15203, 0.03727, 0.36494, -0.04742, -0.16802, 0.01709, -0.00065, 0.01776, -1.48965, 0.54991, -0.03356, 0.50078, -0.9141, -0.09363, -0.03285, 0.42681, 0.49123, 0.21348, -1.42945, 0.3711, -1.15134, -0.71064, 0.35194
}, {
0.63367, -0.13207, -1.13241, 0.10963, -0.56286, -0.10825, 0.14459, -0.2664, -0.47706, -0.16811, -0.76114, -0.10822, -0.02436, -1.2922, -0.71268, -0.53572, -0.14853, 0.46509, 0.02182, -0.33513, -0.49538, -0.27825, 0.09843, 0.36272, -0.06054, -0.1449, -0.09919, 0.1508, 0.01015, 0.28681, -0.15781, 1.12913, -0.34972, -0.15936, 0.09563, -1.45712, 0.62271, 0.02614, 0.67633, -1.06276, -0.04679, 0.00741, 0.42533, 0.70037, 0.73007, -1.01311, 0.17566, -0.61537, -0.54293, -0.05114
}, {
0.57205, -0.24664, -0.12659, -0.28302, -0.66329, 0.57552, 0.01395, 0.21873, -0.4164, 0.09007, -0.51908, -0.30027, 0.32847, 0.41593, -1.05805, -0.28557, 0.0619, -0.01407, 0.1323, 0.37958, -0.06681, -0.16807, -0.05755, -1.615, 0.51657, -0.34156, 0.07406, 0.11412, -0.0378, 0.18475, 0.10482, 0.44354, -0.76558, 0.66514, 0.31566, -0.48069, 0.70977, -0.93836, 0.73117, -0.86134, 0.18847, 0.08894, 0.41835, -0.09039, 0.65445, -0.84137, 0.12844, -0.55231, -0.50006, -0.28714
}, {
0.61788, -0.18694, 0.26364, -0.32024, -0.44138, 0.52372, -0.1302, 0.34874, -0.77917, 0.18151, -1.52364, 0.49301, 0.30183, 0.32866, -0.89985, -0.39751, -0.00105, -1.03538, 0.00018, 0.52246, -0.10242, -0.28165, -0.28182, -0.23403, 0.59936, -0.28961, 0.12617, 0.22281, 0.12866, -0.13317, 0.53523, -1.37097, -0.29515, 1.17339, 0.09384, 0.35909, 0.31132, -0.36075, 0.27657, -0.47263, 0.00153, -0.01533, 0.07003, -0.69649, 0.45516, -0.50885, 0.01434, -1.0045, -0.38125, -0.4082
}, {
0.53357, -0.17968, -0.1497, -0.17265, -0.49812, 0.17843, -0.39479, 0.62791, -0.47411, 0.04594, -0.85669, -0.27145, 0.75377, -0.20233, -1.12266, -0.3519, 0.12437, -2.19307, 0.32057, -0.15438, 0.0058, -0.51558, -0.26221, 0.77734, 0.18825, -0.34971, 0.01316, 0.16272, -0.14625, -0.09623, 0.38444, -0.82543, -0.10137, -0.5827, 0.16711, 0.3213, -1.25631, 1.62457, 0.01771, -1.08033, 0.02953, -0.038, 0.58661, -0.60416, 0.57669, -0.83502, -0.09838, -0.84675, -0.31155, -0.40244
}, {
0.68252, -0.44553, 0.13137, 0.1683, -0.34314, 0.2647, 0.0261, 1.01065, 0.16732, 0.16472, -0.0387, -0.42451, 1.31657, 0.14555, -1.24454, -0.18751, 0.34369, 1.14848, 0.14702, -0.53428, 0.29295, -0.55092, -0.08892, 0.3867, 0.32634, -0.01017, 0.15417, 0.20293, -0.35661, -0.19661, 0.10718, 0.76063, -0.23692, -2.45916, 0.29492, 0.29645, -2.24572, 0.5494, 0.25477, -0.94592, -0.161, -0.13475, 0.30029, -0.83225, 0.42484, -0.74084, 0.17201, -0.77159, -0.28468, -0.00264
}, {
0.83522, -0.62773, 0.09971, 0.28076, -0.67791, 0.66189, 0.31451, 0.42514, 0.44167, 0.04284, 0.81006, 0.04766, -0.16061, 0.18217, -1.33908, -0.05065, 0.51844, 0.90178, -0.02157, -0.21684, 0.30406, -0.34342, 0.20878, -0.7036, 0.49392, 0.121, 0.40635, 0.26658, 0.57196, -0.11369, -0.00707, 0.82411, 0.41942, -0.71955, -0.18392, 0.27397, -1.74201, -1.15668, 0.14474, -1.10754, -0.15708, -0.07698, 0.33988, -0.7088, 0.22564, -0.63275, 0.1182, -1.0327, -0.59774, -0.37509
}, {
0.65539, -0.64838, -0.19598, 0.67932, -0.60398, 0.64396, 0.99623, -0.86954, 0.10334, -0.03101, 1.12119, -0.18753, -0.36389, -0.03434, -1.28281, 0.08033, 0.46833, -0.07077, -0.07603, 0.61325, 0.50231, -0.41046, 0.20153, 0.37585, -0.06488, -0.03259, 2.42342, 0.21712, 1.32617, -0.10716, 0.4897, -0.77836, -0.23979, 1.28797, 0.60403, 0.34978, -1.55832, -1.28002, 0.10447, -1.34973, -0.07921, -0.00321, -0.59222, -0.69354, 0.2772, -0.8037, -0.19058, -1.68962, -0.81324, -0.45176
}, {
0.28308, -0.52716, -0.00849, 0.67075, 0.32853, 0.36174, 0.37298, -0.83825, 0.15716, 0.18453, -0.03999, 0.60262, -0.6963, -0.17741, -1.2131, -0.02105, 0.11039, -0.80267, 0.10925, -0.17283, 0.20666, -0.3533, 0.06078, -0.2304, -0.50111, 0.2509, 0.35939, -0.07758, -0.39677, -0.07265, 0.04607, -0.41044, 0.65317, 0.58631, -0.09857, 0.03931, -1.59052, -0.18398, 0.34335, -1.1054, -0.08591, 0.02482, 0.57535, -0.99746, 0.67417, -0.35312, 0.01438, -1.19763, 0.02939, -0.56934
}, {
0.31749, -0.46035, 0.05033, 0.77057, 0.90301, 0.50752, -0.11274, 0.32265, 0.2339, 0.12987, -1.18295, 1.29292, -0.29698, 0.09651, -0.50076, -0.53762, 0.22822, 0.20773, -0.00714, -0.499, -0.20866, -0.29279, 0.52674, 0.09527, -0.73371, 0.08687, 0.3163, -0.58719, -1.34835, -0.28799, 0.90839, 0.04138, -1.03619, -0.39091, 0.93191, 0.32158, -0.6538, 0.18647, -0.02361, -0.43418, 0.45565, 0.6352, 0.40423, -0.75761, 0.59095, 0.11725, -0.21472, -0.15672, 0.41527, -1.47658
}, {
0.47662, -0.18092, -0.0932, -0.02943, 0.33121, 0.05837, 0.41506, 0.46499, 0.65814, -0.09007, -0.01566, 0.21247, -0.02313, 0.30528, 0.012, 0.15274, 0.20265, -0.19804, 0.10698, 0.38485, -0.00636, 0.05707, 0.4143, -0.04088, -0.22747, -0.01165, -0.19627, -0.43905, 0.11618, -0.28636, 0.06443, 0.06549, 0.39399, -0.14896, 0.23137, -0.04136, -0.07636, -0.13498, 0.0651, -0.17129, 0.37933, 0.44687, 0.49542, 0.29759, 0.46302, -0.06941, -0.06329, -0.12381, 0.22065, -1.26749
}, {
0.0623, 0.03793, -0.03259, -0.05914, 0.16247, -0.13036, 0.03132, 0.11588, 0.18646, -0.06346, -0.07604, -0.22299, 0.00753, 0.09757, -0.04489, 0.25581, 0.07774, -0.06288, -0.00352, 0.0907, 0.08245, -0.03415, 0.09796, 0.08434, 0.04355, -0.07858, -0.08502, 0.05233, 0.00415, -0.09425, -0.10861, 0.08036, 0.25239, -0.02395, 0.03141, -0.05746, 0.02464, -0.09768, 0.09909, -0.05009, -0.00293, 0.04377, 0.21134, 0.10814, 0.18342, 0.01768, -0.00818, -0.18433, 0.10392, -0.12953
} };

const float rnn_h_w[N_HIDDEN][N_HIDDEN] PROGMEM = { {
6e-05, 0.00031, 2e-05, 8e-05, -8e-05, 3e-05, 0.00018, 0.00029, -0.00031, -4e-05, -0.00015, 0.00011, 0.00011, 4e-05, 0.00029, -0.00038, -0.00015, -0.00012, 6e-05, -5e-05, 0.00023, -0.0, 8e-05, -1e-05, -5e-05, -5e-05, 8e-05, -0.00035, -4e-05, 3e-05, 0.00041, 1e-05, -0.00012, 0.00013, -7e-05, 0.00025, 0.00032, 9e-05, -4e-05, -4e-05, -0.00011, 0.00044, -0.00018, 8e-05, -7e-05, -1e-05, 7e-05, -3e-05, 2e-05, 0.0002
}, {
9e-05, 3e-05, 4e-05, -2e-05, 1e-04, -6e-05, 7e-05, -2e-05, 3e-05, 3e-05, -5e-05, -0.0003, 0.00017, 1e-04, -6e-05, -8e-05, -8e-05, -0.00015, 0.00021, -7e-05, 0.00021, 0.00021, 0.00021, 3e-05, 4e-05, -6e-05, 0.00018, 9e-05, 5e-05, 5e-05, -9e-05, -0.00023, -0.00011, -1e-04, -1e-05, -0.00013, 0.00021, 1e-04, -3e-05, 2e-05, 8e-05, 0.00055, -2e-05, -4e-05, 0.00013, -0.00011, -0.00025, -7e-05, 9e-05, -0.00033
}, {
-9e-05, -1e-04, -0.00032, -0.00011, -0.00015, -7e-05, -0.00013, 2e-05, 6e-05, -0.00015, 5e-05, 5e-05, -0.00013, -2e-05, 0.00016, -0.00037, -0.00014, -0.00011, 7e-05, 4e-05, 0.00017, -0.0002, 2e-05, -5e-05, -3e-05, 3e-05, -0.00013, 0.00011, -9e-05, -1e-05, 0.0, 4e-05, -0.00014, 0.00015, 1e-04, 9e-05, 6e-05, -1e-05, -7e-05, -6e-05, 0.00022, 0.00041, -0.00011, -0.00014, 7e-05, -0.00023, -0.00016, -0.00014, -1e-05, -1e-04
}, {
0.00024, 0.00021, -0.00023, -0.00022, 1e-05, -2e-05, 0.00012, -7e-05, -0.00041, 7e-05, 6e-05, 1e-04, 0.00027, -1e-05, -0.00018, -5e-05, 0.00011, -0.00027, 0.00022, -0.00024, -0.00018, 2e-05, 0.0, -0.00011, 0.00015, 0.00023, -8e-05, -9e-05, -2e-05, -7e-05, -8e-05, -0.00012, 7e-05, -2e-05, 0.00019, 0.0002, -0.00034, 0.00012, -7e-05, -8e-05, 8e-05, 9e-05, -0.00026, 0.00013, -7e-05, -5e-05, 3e-05, -7e-05, 8e-05, 0.0002
}, {
-0.00021, 0.00022, 6e-05, -0.00027, -0.00032, -0.00012, 2e-05, -0.0003, 3e-05, 5e-05, 0.00014, 0.0, -2e-05, -8e-05, -0.00034, -0.00022, 8e-05, 7e-05, -0.00017, -5e-05, 4e-05, 1e-04, 5e-05, -4e-05, 4e-05, 0.00015, -0.00023, 1e-04, -3e-05, -6e-05, 1e-04, 0.00023, 4e-05, 0.00014, 5e-05, 1e-04, -6e-05, -0.00028, 0.0004, 4e-05, 0.00013, 1e-05, -0.00014, -0.00012, 2e-05, 0.00023, -0.0, 7e-05, 6e-05, -0.00013
}, {
1e-05, -0.00019, 3e-05, -0.00011, 4e-05, -5e-05, -7e-05, 0.0, 1e-04, 0.00039, 0.00041, -8e-05, -6e-05, 0.00012, -0.00012, 0.0, 7e-05, -0.00019, 0.00019, 0.00019, -0.0002, 0.00016, -0.00017, -3e-05, -7e-05, 0.00014, 1e-05, -0.00016, -0.0, -6e-05, 0.00014, 1e-04, -2e-05, 9e-05, 9e-05, -8e-05, -0.00017, 0.00012, 3e-05, -7e-05, 0.00023, 0.0004, 7e-05, -2e-05, -2e-05, 0.0, -9e-05, -7e-05, 3e-05, 3e-05
}, {
-0.00025, -5e-05, -9e-05, 6e-05, -2e-05, -0.00015, -9e-05, 0.00012, -0.0002, 0.00019, 0.00014, 8e-05, 3e-05, 0.00017, 5e-05, -0.00013, -0.00012, 3e-05, -0.00012, -0.00027, 0.00014, -1e-05, -0.00024, 9e-05, 0.00017, 0.00014, -0.00017, -0.00026, 9e-05, -6e-05, -0.00019, 0.0, -3e-05, 2e-05, -7e-05, 6e-05, 0.00018, -2e-05, 8e-05, 1e-05, 2e-05, -5e-05, 0.00013, 6e-05, 6e-05, 0.00011, -0.00011, 2e-05, 0.00031, -0.00025
}, {
0.00013, 0.00033, 0.00014, -1e-04, -0.00018, -0.00031, 0.0004, 0.00029, -0.00012, -0.00015, 0.00027, 0.00016, -0.00032, -1e-04, -0.00015, -6e-05, -8e-05, -1e-05, 3e-05, 0.0002, -5e-05, -2e-05, -0.00022, 5e-05, 0.00031, -5e-05, -2e-05, -0.0, -0.00023, 3e-05, 9e-05, 4e-05, -0.00021, -0.00014, 1e-05, -3e-05, 0.00012, -0.00021, 2e-05, 0.00017, 0.00025, -1e-05, 0.00013, 1e-05, 0.00029, -9e-05, -0.00012, -0.00021, 0.00015, -6e-05
}, {
4e-05, -1e-05, -4e-05, 0.00025, 0.00014, -9e-05, 8e-05, -0.0002, -0.00015, 0.00011, 6e-05, -2e-05, 6e-05, -7e-05, -0.00018, -1e-04, 0.00027, -4e-05, 4e-05, 0.0002, 6e-05, -0.00021, 7e-05, -1e-05, -0.0002, -7e-05, 0.00016, 2e-05, 2e-05, 1e-04, 5e-05, -0.00025, -0.00016, 4e-05, 0.0002, -0.00035, -0.00024, 0.00038, -1e-04, 0.0, -2e-05, 0.00021, -9e-05, -4e-05, -0.00016, -1e-04, 5e-05, 0.00043, -0.00017, -9e-05
}, {
0.00014, 0.0002, -5e-05, 0.00012, 8e-05, -3e-05, -1e-05, -9e-05, -0.00011, 3e-05, -0.00014, 1e-04, -7e-05, -0.00032, -0.00022, -0.00017, 8e-05, 8e-05, -6e-05, -0.0, -6e-05, -0.00014, -6e-05, 0.00011, 1e-05, -0.00023, 0.00015, 0.00026, -0.00015, -1e-04, -1e-04, 0.00015, -3e-05, 0.0002, -0.0, -0.0, -2e-05, -0.00012, 0.00026, -0.00011, -3e-05, 4e-05, -7e-05, 7e-05, -2e-05, -0.00013, -0.00026, -8e-05, -0.00015, 2e-05
}, {
0.00037, -5e-05, -9e-05, -0.00017, 4e-05, 6e-05, -7e-05, -0.00013, -6e-05, -5e-05, 1e-04, 7e-05, 0.00013, -0.00025, 0.00026, 0.00011, 3e-05, -6e-05, -0.00011, -0.0002, -1e-04, 0.0, -9e-05, -4e-05, 6e-05, 8e-05, -0.00019, -1e-05, -0.00017, 0.00029, -1e-04, 0.00033, 4e-05, -3e-05, -0.0003, 7e-05, -4e-05, 5e-05, -0.0002, 0.00029, -0.00015, 9e-05, 0.00017, -7e-05, -0.00019, 5e-05, -1e-05, -9e-05, -7e-05, -0.00029
}, {
-7e-05, 5e-05, -0.00022, -0.00025, -0.00016, -7e-05, -0.00014, 0.00039, 9e-05, 7e-05, -0.0002, -3e-05, -1e-05, -6e-05, 0.00013, -0.0, -0.00027, 0.00013, 4e-05, 8e-05, 5e-05, 9e-05, -2e-05, -5e-05, -0.00013, -7e-05, -0.00015, -6e-05, -0.00022, 0.00011, -0.0002, -0.00012, 6e-05, 6e-05, -0.00018, 0.00012, -0.00011, -9e-05, 7e-05, 2e-05, -0.00014, -0.00015, -1e-05, 2e-05, -8e-05, -1e-05, 3e-05, 0.00016, -0.00013, 0.00014
}, {
0.00028, 0.00011, 0.00013, -0.00017, -0.00017, 0.00013, -9e-05, -5e-05, -9e-05, 0.00022, 0.00023, -8e-05, 0.00028, 0.00012, -0.00018, 0.00022, 0.00015, -0.00015, 7e-05, -0.00023, 0.00019, 0.0, -1e-05, 0.00014, 0.00016, 3e-05, 0.00017, 0.00011, 8e-05, -4e-05, 3e-05, -1e-04, -0.00031, -1e-04, -6e-05, 0.00016, -0.00012, 0.00021, -7e-05, 2e-05, -9e-05, -0.0, 0.00021, 4e-05, -0.0004, -5e-05, -0.00022, 7e-05, -7e-05, 0.00039
}, {
-2e-05, -8e-05, 3e-05, -2e-05, -6e-05, 3e-05, -0.0, -7e-05, -6e-05, 3e-05, -0.00015, 9e-05, -0.00018, 1e-05, -7e-05, -4e-05, -4e-05, -4e-05, -0.00023, 5e-05, -2e-05, 0.00018, 8e-05, -0.00019, -0.00021, -0.00018, -0.00033, -0.00014, 0.00015, 2e-05, -0.00011, 5e-05, -0.00013, 2e-05, -0.00016, -0.00026, 1e-05, -4e-05, -0.00012, -0.00016, 5e-05, 0.00026, -0.00017, -1e-05, 0.00024, 0.00022, 0.00018, 8e-05, 4e-05, 1e-05
}, {
-3e-05, -1e-05, -0.00014, 6e-05, 4e-05, 0.00017, -0.00026, 1e-04, 0.00019, 0.00022, -5e-05, 3e-05, 0.00016, 0.00017, 3e-05, -0.00015, 0.00014, 4e-05, 9e-05, -0.00012, 0.00021, 0.00016, 0.00019, -0.00014, 1e-05, 5e-05, -9e-05, 3e-05, -2e-05, 0.00011, -0.00023, -0.00011, 9e-05, 9e-05, -0.00021, -0.00022, -0.00013, -9e-05, -1e-04, -2e-05, -0.00017, -0.00023, -1e-04, 9e-05, 0.00027, -0.00015, 8e-05, -3e-05, 0.00018, 4e-05
}, {
7e-05, 0.00023, 6e-05, -0.00017, -5e-05, -1e-04, 0.00014, -2e-05, 1e-05, -9e-05, -7e-05, -4e-05, -1e-04, 6e-05, 1e-04, 4e-05, -0.00012, 4e-05, 2e-05, 9e-05, 1e-04, 1e-05, -0.00026, -6e-05, 0.00037, -0.00023, -0.00027, 0.00015, -1e-04, 1e-05, -3e-05, 0.00021, 2e-05, 0.00013, -0.00019, -0.00017, -6e-05, -0.00015, 0.00017, 8e-05, -0.00016, -3e-05, 0.00016, 7e-05, 0.00015, 0.00016, 0.00012, -0.00012, -0.00017, -0.00033
}, {
-0.00015, 8e-05, -7e-05, 1e-05, 2e-05, -3e-05, 5e-05, -0.00018, 8e-05, 6e-05, 0.0, 0.00018, -3e-05, -4e-05, 0.0, 0.00016, -2e-05, 4e-05, 0.00026, -1e-05, 4e-05, 0.00011, 1e-05, -2e-05, 0.0, -0.00045, 0.00015, 0.0, -1e-04, -0.00012, -1e-04, -0.00014, -0.00015, -0.00011, -5e-05, -8e-05, -0.00022, -0.00017, -5e-05, -8e-05, 9e-05, -0.00012, 0.00012, 1e-05, -0.00024, 9e-05, -3e-05, 0.0002, -2e-05, -6e-05
}, {
-8e-05, 0.00019, -0.00015, -9e-05, -0.00025, -0.00019, 7e-05, 0.00028, -0.00014, 0.00012, 3e-05, 2e-05, 2e-05, 9e-05, -0.0002, -0.00024, -7e-05, 0.00021, 0.00012, -2e-05, 9e-05, -0.00014, -0.00014, -2e-05, 0.00024, 0.0, 0.00023, -0.0, -0.00011, 0.00018, 0.00014, 0.00035, -9e-05, 9e-05, -0.00016, -5e-05, 3e-05, -1e-05, -0.00014, 1e-05, -6e-05, -0.0, -6e-05, -0.00026, 0.00019, 8e-05, 0.00028, 0.00012, -0.00044, 5e-05
}, {
-0.00035, 0.00015, 0.00034, 5e-05, 0.00014, 3e-05, 5e-05, -0.00012, 1e-04, 0.00011, -0.00021, 3e-05, 9e-05, 6e-05, 0.0, -2e-05, 7e-05, -0.00015, 5e-05, 0.00016, -1e-05, -0.00013, 0.00018, -2e-05, -0.00024, 0.00028, -0.00015, 9e-05, -0.00013, -9e-05, -4e-05, 1e-05, 9e-05, -4e-05, 0.00018, -0.00012, -0.00018, -9e-05, 0.00018, -5e-05, 0.00011, -0.00042, -8e-05, 0.00021, -7e-05, 0.00017, -0.0, 0.00012, -0.00012, 7e-05
}, {
-0.00011, -5e-05, -0.00024, -0.00022, 4e-05, 9e-05, 7e-05, -1e-05, 3e-05, -0.00021, -0.00016, -0.00023, -0.00011, 4e-05, 3e-05, 0.00011, 0.00026, -1e-04, 9e-05, 0.0, 1e-04, 0.00011, -2e-05, 1e-04, 0.00016, 8e-05, 7e-05, 4e-05, 2e-05, 6e-05, -1e-05, -8e-05, 0.00012, 0.0, -0.00016, 7e-05, -1e-05, -3e-05, 0.00018, 0.00015, -2e-05, 1e-05, -0.00032, 0.00016, 6e-05, -4e-05, -0.00033, -0.00017, 1e-05, 0.00021
}, {
-2e-05, -4e-05, 0.00019, -0.00015, 0.00033, -0.00022, -0.00023, 0.00016, 1e-05, 0.00021, -0.00014, -0.00014, 6e-05, -3e-05, -8e-05, -3e-05, 3e-05, -4e-05, 0.00019, 0.00016, -0.00018, 1e-05, -0.00023, -6e-05, 8e-05, -0.00017, 2e-05, -0.00055, 0.00016, 8e-05, -5e-05, 0.00025, -7e-05, 8e-05, 1e-04, 0.0002, 0.00013, 0.00012, 0.0, 1e-05, -2e-05, -0.00024, -4e-05, 3e-05, 0.00016, -0.0002, 6e-05, 0.00012, 0.00015, 9e-05
}, {
-0.00012, -1e-04, 1e-04, 0.00024, -8e-05, 1e-04, 0.0002, -0.00015, -0.00014, 0.00013, 4e-05, -0.00021, -1e-05, 0.0, -9e-05, -0.00022, -8e-05, 3e-05, 0.00034, -1e-04, 2e-05, -1e-04, 0.00017, 8e-05, 0.00023, -0.00021, 3e-05, 0.00018, -0.00021, 7e-05, 6e-05, 0.00019, 0.00015, -0.00015, 7e-05, -1e-05, -9e-05, -2e-05, 0.00019, -0.00022, 8e-05, -0.00033, 3e-05, -5e-05, -5e-05, -8e-05, -4e-05, -5e-05, -0.00023, -0.00017
}, {
0.00015, 6e-05, 7e-05, 1e-04, 0.00014, -1e-04, 0.00037, 4e-05, 0.00022, 8e-05, -3e-05, 0.00021, 7e-05, 1e-05, 0.00024, -0.00011, 4e-05, 3e-05, -0.00038, 0.00022, 0.00016, -1e-05, -4e-05, 6e-05, -3e-05, -0.00016, 3e-05, 9e-05, -5e-05, -0.00011, 2e-05, -4e-05, 4e-05, -7e-05, 8e-05, 0.00012, 0.0, 0.00019, 0.00014, -0.0, -0.00011, -0.00014, 0.00011, 4e-05, -3e-05, -2e-05, 6e-05, -1e-05, 0.00032, -0.00022
}, {
7e-05, 1e-04, -2e-05, -0.00017, -4e-05, 0.00013, -5e-05, 0.00021, 2e-05, 9e-05, 6e-05, 0.00025, 4e-05, 3e-05, -0.00013, -0.00015, -4e-05, -1e-05, -0.00017, -7e-05, -0.0, 5e-05, 1e-04, 5e-05, -0.00017, -4e-05, -2e-05, 0.00015, -2e-05, -9e-05, -9e-05, -4e-05, -4e-05, -5e-05, -1e-04, -0.00016, -8e-05, -0.00015, -6e-05, -0.00014, -3e-05, -0.00014, 7e-05, 0.0004, -0.00036, 7e-05, 8e-05, -0.00017, -3e-05, -4e-05
}, {
-0.00031, 9e-05, -3e-05, -0.00014, 0.00016, 8e-05, 0.00026, -0.00027, -4e-05, 0.00024, 0.00017, 9e-05, 0.00018, 0.00016, 4e-05, -3e-05, 0.0, 0.0002, 6e-05, 0.00017, 0.0, 0.0, -0.00018, -0.00029, 5e-05, 0.00024, -7e-05, 0.00018, 0.00014, 0.00025, -1e-05, 0.00033, 9e-05, 4e-05, 7e-05, -9e-05, 8e-05, 0.00022, 0.00015, 0.00049, 6e-05, 7e-05, 0.00018, -0.00035, -0.00031, -6e-05, 0.00013, -3e-05, 2e-05, -9e-05
}, {
0.00013, -0.00021, 1e-05, 7e-05, -7e-05, 4e-05, 0.00016, -0.00023, -2e-05, -1e-04, 7e-05, -1e-05, 1e-04, -2e-05, -0.00014, 9e-05, -0.00021, -6e-05, 0.00021, -0.00011, -0.00023, 4e-05, -0.0002, 0.00031, 7e-05, 1e-05, -0.00011, 2e-05, -8e-05, -0.00012, 0.00014, -4e-05, 0.00014, 0.00018, -1e-04, -3e-05, -0.00014, 0.00012, 0.00014, -0.00013, -3e-05, 5e-05, 0.0, -1e-05, 0.00014, -0.0, -1e-05, 1e-05, -0.00013, -5e-05
}, {
9e-05, -0.00014, 0.00016, -0.0002, 9e-05, -5e-05, -0.00013, 7e-05, 9e-05, -4e-05, -0.00016, -7e-05, 0.00014, -0.0003, 4e-05, -2e-05, 8e-05, 1e-04, -0.00034, 4e-05, -0.00018, 9e-05, 8e-05, 0.0003, -7e-05, -9e-05, -0.00019, 9e-05, -6e-05, -0.00015, -1e-04, 0.00041, 1e-04, 0.00038, 0.00039, 3e-05, -4e-05, -1e-04, 0.00033, -0.0, -0.00018, -0.0, 0.00011, -0.00018, -6e-05, -5e-05, -0.00014, -0.00016, -0.00025, 3e-05
}, {
-0.00018, -0.00012, -1e-04, -0.00012, 0.00021, 3e-05, -0.00015, -4e-05, 6e-05, -0.00043, 8e-05, 4e-05, -1e-04, 0.00011, 2e-05, 0.00026, 0.00015, 4e-05, 0.00036, 0.00029, 0.0, 9e-05, 0.00026, 0.00022, -5e-05, -7e-05, -0.00026, -0.0, 0.00012, -4e-05, -0.0004, 0.00011, -0.00013, -0.00028, 0.00017, 0.00041, 5e-05, -0.00022, 0.00022, 0.00016, 0.00023, -6e-05, 0.00023, 0.0, -0.0, -0.00015, -8e-05, 5e-05, -0.00016, 0.0002
}, {
9e-05, -0.0, -5e-05, 0.00028, -6e-05, -8e-05, 0.00018, 2e-05, 9e-05, -0.0, -0.00029, 7e-05, 5e-05, -0.00043, -8e-05, -8e-05, 7e-05, 0.00011, -0.00039, 0.00038, -8e-05, -0.00013, -0.00011, -1e-04, -1e-05, 0.00029, 6e-05, -0.00025, -0.00027, -0.00015, -0.00022, -0.0, 0.0, -1e-05, 3e-05, -1e-04, 0.00012, -0.00019, -2e-05, 3e-05, -6e-05, -0.00033, 0.00013, 0.00038, -5e-05, 0.00016, 7e-05, 3e-05, -6e-05, 9e-05
}, {
-0.00011, 0.00011, 0.0, -0.00024, 0.00011, 0.00015, 0.00016, -0.00025, 0.00017, 6e-05, -6e-05, 0.00016, -5e-05, -0.00028, -9e-05, -5e-05, 7e-05, -2e-05, -0.00018, -0.00016, 0.00013, 0.00021, 0.00028, 5e-05, 1e-04, 0.0, -0.00014, 9e-05, -4e-05, -7e-05, 0.0002, -4e-05, -6e-05, 4e-05, -0.00026, -4e-05, -3e-05, 7e-05, -0.00017, -9e-05, 0.00023, -0.00018, 4e-05, -0.00016, 0.00029, -0.00012, 0.00014, 4e-05, 3e-05, 0.00013
}, {
0.00043, -0.0002, -0.00016, -0.00027, -0.00024, 2e-05, -6e-05, -1e-04, -3e-05, -7e-05, 0.00012, 0.00014, -1e-04, -0.0002, -1e-04, 0.0003, 0.00013, -0.00011, -3e-05, 9e-05, -3e-05, -0.00021, 0.00019, 0.0002, 1e-05, 6e-05, -0.00018, 0.00017, 3e-05, 2e-05, -4e-05, -6e-05, 0.00016, -0.00022, 0.00019, -3e-05, -0.00015, 0.00012, 1e-05, -0.00011, -0.00019, 9e-05, -0.00012, -0.00028, 0.00011, 0.00029, -0.00029, -1e-04, -0.00014, 0.00034
}, {
-1e-05, 0.00016, -8e-05, 1e-04, 0.00021, 4e-05, 4e-05, 0.00012, -0.00015, -6e-05, -4e-05, 9e-05, 0.00018, -8e-05, -0.00013, 0.00015, -0.00015, -0.00016, -0.00027, 1e-05, 6e-05, -5e-05, 8e-05, -4e-05, -0.00031, 0.00021, 0.00022, 7e-05, -6e-05, 2e-05, 3e-05, -4e-05, 0.00017, -0.00017, -4e-05, 1e-04, -3e-05, -0.00011, 4e-05, -4e-05, 5e-05, 8e-05, -0.00017, 3e-05, 0.0, -5e-05, 0.00016, 9e-05, 4e-05, -0.00027
}, {
-0.00011, -0.00016, -0.00026, 0.00012, 0.00023, 0.0, 0.00018, 9e-05, 0.00026, 4e-05, -0.00011, -0.00013, 5e-05, -1e-05, 3e-05, -3e-05, 0.00018, 8e-05, -0.00012, -5e-05, 4e-05, 1e-04, 0.00029, -0.00011, -0.00028, 0.00016, 0.00013, 0.00027, 8e-05, 8e-05, 0.00014, -0.00013, 0.00034, -2e-05, 0.00027, 1e-05, 9e-05, 0.00023, 1e-05, 0.00013, 0.00014, 0.00019, 0.00029, 9e-05, 8e-05, -4e-05, -9e-05, -1e-05, -0.00022, 0.00035
}, {
-1e-05, 0.00016, -0.00014, 3e-05, 2e-05, -3e-05, -0.00028, -0.00024, 0.00024, -1e-05, 3e-05, -0.00018, -0.00015, 0.00011, 4e-05, 0.00015, 3e-05, -0.00023, -0.00025, 0.00024, -3e-05, 7e-05, 6e-05, 1e-04, -0.00018, 1e-05, 0.00034, -0.00021, -2e-05, -8e-05, -0.00028, -0.00018, 8e-05, -3e-05, 0.00017, 0.00032, 0.00023, -0.00011, -0.00021, 0.00013, -4e-05, 0.00023, -5e-05, 0.00034, -0.00024, 4e-05, 0.00013, 0.00016, 3e-05, 1e-04
}, {
0.00023, 0.00035, 0.00022, 7e-05, -0.00027, 0.00012, 0.00027, 8e-05, -0.00015, -9e-05, 0.00011, -0.00017, -1e-05, -0.00013, 5e-05, -9e-05, 5e-05, -6e-05, -3e-05, 0.00013, -3e-05, 0.00023, 1e-05, -9e-05, 0.00038, -2e-05, -0.0003, 0.00013, -0.00014, 5e-05, -0.00026, 9e-05, 8e-05, 5e-05, -1e-05, -6e-05, 1e-04, -1e-05, 0.00024, 3e-05, -0.00013, 0.00019, 9e-05, -0.0002, -0.00012, -0.00012, 0.00018, 4e-05, -0.0003, 4e-05
}, {
-0.00012, -0.0, 3e-05, -0.00027, 0.00012, -1e-05, 2e-05, 5e-05, -0.00015, -1e-05, -0.00012, 0.00014, 0.00015, -1e-04, -1e-05, -0.00013, 0.00025, -0.00018, -6e-05, -1e-04, 1e-05, 5e-05, -0.0003, -0.00016, 0.00017, 4e-05, 2e-05, 0.0, -1e-05, 2e-05, 8e-05, -3e-05, 0.00019, -0.00019, -0.00017, 8e-05, 0.00022, 1e-04, -0.00013, 3e-05, 0.00016, 4e-05, -1e-05, -9e-05, -0.00022, 8e-05, 0.00016, -0.00013, 0.00015, 5e-05
}, {
-2e-05, 0.00012, 0.00026, -5e-05, 0.00015, 1e-04, 1e-05, 4e-05, -0.0002, 0.00017, -3e-05, -3e-05, 0.00014, 0.00014, -3e-05, 0.00012, 0.00014, -0.00012, -0.0004, 0.00023, 0.0, -0.00016, 1e-05, 0.00022, 1e-05, -0.00035, 6e-05, -0.00021, -2e-05, 0.00034, 8e-05, 0.0002, 3e-05, -0.00039, 0.00024, -2e-05, -7e-05, -0.00018, -0.00024, 0.00012, -2e-05, -5e-05, 6e-05, -0.00017, 1e-05, -0.0, 0.00035, 0.00027, -0.00021, 9e-05
}, {
0.00015, 0.00015, 0.00012, -6e-05, -0.00036, -7e-05, -0.00024, -7e-05, 0.00014, 1e-05, 8e-05, 4e-05, 0.00027, 5e-05, 8e-05, 0.00023, -0.00011, 5e-05, 0.00017, -1e-05, -0.00018, -0.00017, 0.00013, 9e-05, 4e-05, -0.00023, 9e-05, 0.00015, -0.00011, -6e-05, -7e-05, 9e-05, -8e-05, -0.00011, 0.00014, 2e-05, 0.00019, -8e-05, 0.00027, -0.00015, 2e-05, -1e-05, 0.0002, -0.00011, -0.00027, -1e-04, -1e-05, 0.00018, -2e-05, 4e-05
}, {
-0.00016, 5e-05, 0.00014, -0.00012, 0.00018, 0.00022, -0.00012, 0.00019, -8e-05, 0.00027, -2e-05, -0.00022, -0.00011, 0.00015, 8e-05, -0.00051, -3e-05, 0.00017, -8e-05, -5e-05, -0.00017, -1e-05, 4e-05, -2e-05, -0.0004, 5e-05, 0.00024, 0.00018, -0.00015, 9e-05, -0.00015, -5e-05, -0.00033, -0.0, -0.00029, -4e-05, 0.0002, 1e-05, -3e-05, -3e-05, -3e-05, -2e-05, -0.00044, 5e-05, 0.00023, 0.00022, -0.00028, 1e-05, 0.00017, 0.00034
}, {
-9e-05, 9e-05, 0.00023, 0.00021, -7e-05, -0.00011, 0.00042, -5e-05, -0.00026, -7e-05, -2e-05, -9e-05, 9e-05, -1e-04, 9e-05, 0.00013, -0.00016, -9e-05, -5e-05, -0.00014, 3e-05, 0.00017, 7e-05, 3e-05, 3e-05, 0.00021, 3e-05, -0.00012, -5e-05, 5e-05, 4e-05, -7e-05, 0.00018, 5e-05, -2e-05, -3e-05, -0.00015, -0.0, -8e-05, -9e-05, -0.0, -4e-05, -0.00023, 3e-05, -0.00015, -0.00021, 2e-05, 0.00028, -0.00018, -2e-05
}, {
-6e-05, -0.00026, 1e-04, 0.00018, 0.00017, -4e-05, 0.0003, 0.0, -0.00024, 3e-05, 1e-05, 4e-05, 8e-05, -0.00014, -2e-05, -6e-05, -0.00012, -0.00012, 8e-05, 0.00022, -0.00013, -6e-05, -7e-05, -1e-05, -8e-05, 2e-05, -0.00014, -5e-05, -1e-04, -0.00011, -0.00032, 2e-05, 7e-05, -1e-05, -6e-05, -7e-05, 5e-05, -2e-05, -6e-05, 8e-05, -9e-05, 2e-05, 0.00013, -0.00021, 2e-05, -8e-05, -9e-05, 0.00023, -0.00012, 2e-05
}, {
8e-05, -9e-05, -3e-05, -0.00024, -0.0, 4e-05, -0.00022, 0.00011, 0.00013, -0.00013, -0.00012, -0.00019, 0.00013, 3e-05, 4e-05, 0.00017, -1e-05, -6e-05, -5e-05, 3e-05, -3e-05, -8e-05, 1e-04, 0.0, -0.00032, 6e-05, -4e-05, -2e-05, -0.0, 1e-04, 0.00019, 0.0, -4e-05, -0.00014, 0.00012, -4e-05, 0.00011, 0.00015, 1e-04, 0.0002, -6e-05, -0.00018, -0.0, -0.00016, -2e-05, 9e-05, -0.00019, -0.00011, -9e-05, 3e-05
}, {
-0.0003, -0.00014, -2e-05, 3e-05, -0.0, 0.0, 1e-04, 0.00023, 0.00013, -9e-05, -3e-05, 0.00011, -8e-05, -0.00018, 7e-05, 1e-04, -0.00015, -0.00023, 8e-05, 1e-04, 0.00015, 0.00011, 0.00028, -9e-05, 1e-04, -7e-05, -0.00023, -0.00019, 2e-05, 0.00019, -0.00019, -9e-05, -5e-05, 3e-05, 0.00017, -0.0, -0.0002, 0.00011, -7e-05, 0.00011, 0.00016, 0.00019, -0.00014, -0.0002, -0.00012, 9e-05, 0.00013, 9e-05, 1e-04, -4e-05
}, {
-0.0, 0.00012, -0.00025, 0.00045, -1e-04, -7e-05, -3e-05, 6e-05, 0.0003, 0.00033, 6e-05, 1e-04, -2e-05, -0.0003, 0.00012, 0.00031, 5e-05, 0.00031, 3e-05, -0.00011, 0.00015, 0.00017, 5e-05, 0.0, 0.0002, 1e-04, -3e-05, -3e-05, 4e-05, -0.00027, 0.0, -5e-05, -2e-05, -0.00014, 0.00019, 0.00014, 1e-04, -1e-05, 5e-05, 0.00017, -7e-05, 0.00025, -8e-05, -8e-05, 0.00026, 4e-05, -3e-05, -0.0, 0.00022, 7e-05
}, {
8e-05, -0.00012, -9e-05, -3e-05, -0.00013, -0.00011, -5e-05, -4e-05, -4e-05, -3e-05, 0.00011, 0.00025, 4e-05, 7e-05, -2e-05, -0.00013, 1e-04, 0.0002, -0.00019, -0.00024, 0.00015, 2e-05, 0.00017, 0.00015, -0.00011, -0.00012, -4e-05, -5e-05, 0.0, -0.0, -0.00014, -4e-05, 5e-05, 0.00028, -0.00012, -0.00023, -7e-05, 0.00024, -8e-05, -0.00029, -0.00016, 1e-05, -5e-05, -0.00035, -3e-05, 0.0002, -0.00012, -8e-05, -3e-05, -1e-04
}, {
5e-05, -8e-05, -2e-05, -0.00035, -0.00017, 8e-05, 6e-05, -0.00018, 0.0003, 0.0004, -0.00018, 2e-05, 0.00011, -0.00014, 2e-05, 7e-05, 0.00018, -0.00012, -0.0003, 4e-05, -0.0003, 0.0, 0.0002, 2e-05, -6e-05, 0.00017, -0.00017, -0.00018, 3e-05, -8e-05, 8e-05, -0.00014, 1e-04, 0.00023, 1e-05, -0.00017, 0.00015, -8e-05, -0.00013, 1e-05, -0.00015, 4e-05, 3e-05, -5e-05, 0.00014, -9e-05, -0.00016, -1e-05, 9e-05, 0.00014
}, {
-0.00013, -2e-05, 7e-05, 2e-05, -9e-05, -0.00037, -1e-04, -0.0002, 0.00018, -0.00015, -0.00011, 0.00026, -4e-05, -4e-05, -5e-05, -0.00018, -0.00012, 1e-05, -0.00027, 0.00011, -6e-05, 0.00016, -4e-05, 3e-05, -2e-05, -6e-05, -2e-05, -5e-05, 2e-05, -0.0002, -0.00019, 0.00023, -0.00014, 0.00022, 1e-04, 0.00019, -0.00026, -3e-05, 0.00014, -4e-05, 0.00016, 5e-05, 2e-05, 9e-05, 0.00032, -6e-05, -0.00034, 1e-05, -0.00013, -1e-04
}, {
0.00024, -9e-05, -9e-05, 9e-05, 8e-05, -7e-05, -1e-04, -0.00023, 0.00016, 2e-05, -1e-05, 0.00015, 0.0, -1e-05, -0.00017, -0.00019, -0.00012, 2e-05, -0.00016, -0.00012, 0.00016, -6e-05, -0.00012, -4e-05, -2e-05, -0.00011, -0.00013, -1e-05, 0.00019, 2e-05, 0.00016, 6e-05, -0.00015, 0.0002, -5e-05, 9e-05, 0.00041, -6e-05, -0.00013, -8e-05, 0.00025, -0.00018, -0.00022, 2e-05, -3e-05, -7e-05, 9e-05, -0.00041, 3e-05, -5e-05
}, {
-1e-05, 0.00017, 9e-05, -0.00025, -0.0, -0.00013, 0.00014, 0.00022, -1e-05, 0.00027, 3e-05, -0.00019, 2e-05, -7e-05, -0.0, 5e-05, -5e-05, 3e-05, 0.00012, -0.00015, 0.00041, 0.00023, 8e-05, -0.00016, -7e-05, -4e-05, 2e-05, 0.00024, -7e-05, 3e-05, 0.00015, -0.00012, -4e-05, -0.0002, -0.00015, -0.00012, 2e-05, -2e-05, -0.00019, -0.00021, -0.00017, -0.00027, -1e-05, -1e-05, -0.00011, -6e-05, 3e-05, 0.00016, -0.00016, -0.00037
}, {
-0.0, 0.00018, -6e-05, 0.00034, -0.00011, 0.00016, -0.00011, -0.00018, -0.00025, -6e-05, -3e-05, 0.0003, -8e-05, -0.00023, 9e-05, -1e-05, 9e-05, -7e-05, 6e-05, -8e-05, 0.00039, -5e-05, -4e-05, 0.00012, -6e-05, -3e-05, 3e-05, -0.00018, 2e-05, 4e-05, 9e-05, 0.00039, -0.00015, -3e-05, 0.00027, 1e-05, 0.00023, -2e-05, 0.00022, 9e-05, 5e-05, -0.00012, -7e-05, -9e-05, 0.00016, 6e-05, -0.00017, 0.00017, -0.00014, -0.00034
} };

const float rnn_b[N_HIDDEN] PROGMEM = {
0.12109, 1.25928, -0.27869, 0.61101, 0.0772, -0.92991, 0.52106, 0.67793, 0.99621, -0.38976, 0.36601, -0.00651, -0.16752, 0.59155, 1.27186, 0.56437, -0.11788, 0.09803, -0.0091, -0.29082, 1.05386, 1.01032, -0.20039, -0.11857, 0.62812, 0.51553, -0.42065, 0.69644, -0.39451, 0.70739, 0.70961, 0.36871, 0.03221, 0.43371, 0.05004, 0.46238, 0.43748, 0.53558, -0.21727, 1.19109, -0.31777, -0.33296, 0.24445, 0.82557, 0.48438, 0.98176, -0.4531, 0.69215, 0.58695, 0.5605
};

const float head_w[N_HIDDEN][N_CLASSES] PROGMEM = { {
-0.6146, 0.47102, 0.7992, 0.5197, 0.4583, 0.37072, -0.3023, 0.35174, 0.16322, -0.70051, -0.52042
}, {
-1.32145, 0.23746, 0.2405, -0.96672, -0.21953, 1.2216, 0.21339, -0.08436, -1.1394, -0.33058, 0.10241
}, {
-1.65851, -1.2116, 0.50567, 0.2813, 1.2097, 0.09347, -0.02597, -0.89934, 0.21168, 0.48156, -1.34718
}, {
-0.55971, -0.71875, -0.75969, -0.09097, -0.64111, 0.18287, -1.50503, 0.14765, -0.14561, 0.82936, 0.66589
}, {
-0.56887, 0.51253, 1.53851, 0.00126, -0.07038, 0.37867, -0.56533, 0.78885, -0.15964, 0.09879, -0.77393
}, {
0.35712, -1.10905, 0.58328, 0.31816, -1.20856, -1.51408, -0.84867, -0.05636, 0.18361, -0.17037, -0.84824
}, {
-0.07969, -0.47059, -0.4895, -0.90134, -0.43363, -0.57023, 0.26907, -0.6789, -0.39988, -0.34207, -0.35442
}, {
0.57783, -0.55622, -0.58538, 0.20734, -1.29953, 0.25791, -0.13335, -0.07744, -0.01144, -0.73725, 0.20362
}, {
0.00024, 0.18394, -0.08497, 0.1852, -1.17557, -0.54941, 0.00809, 1.11322, -0.43425, -0.94004, 0.56493
}, {
-1.64576, -1.76161, -0.20922, 0.33145, 0.91011, 0.17649, 0.09779, -0.98894, 0.82089, 0.19058, -2.33822
}, {
0.44388, -0.05346, 0.11106, 0.41706, -0.42416, 0.54508, 0.19441, -0.30397, -1.19224, -0.1558, -0.69844
}, {
-0.21956, 0.20054, 0.05423, -0.00796, 0.01557, -0.63857, 0.0123, -0.42166, -0.67743, 0.08718, -0.79699
}, {
0.14112, 0.39731, 0.27988, 0.33773, -0.24327, 0.16538, 0.49246, 0.01506, -0.40778, 0.17072, -1.49988
}, {
-0.97188, -0.66543, 0.51889, -0.30004, 0.93555, -0.34777, -0.35582, -0.62185, -0.44035, 0.70744, 0.2784
}, {
0.86814, -0.03877, -1.24984, -0.58943, 0.57481, -1.50806, -0.70506, 0.23467, 0.8952, 0.58158, 0.34978
}, {
-0.09585, 0.06213, -0.17974, 0.20877, -0.38908, -0.76078, -0.03851, -0.48529, -0.38181, -0.88586, 0.25908
}, {
-0.03845, 1.00754, -0.57776, -0.28548, 1.14622, 0.66974, 0.81628, 0.6447, -1.01582, 0.52604, -0.20394
}, {
0.3507, -0.3395, 0.28551, 0.15805, -0.84479, 0.18344, 0.33607, -0.11689, 0.5531, -0.7453, -0.66897
}, {
-0.13442, -0.09434, -0.28106, -0.2023, -0.07046, -0.09389, 0.19512, -0.11122, -0.04355, -0.11234, -1.94287
}, {
-0.02212, -0.70122, 0.44689, -0.19433, -0.3565, -0.06935, 1.11232, -0.08171, 0.14434, -0.27966, -0.79043
}, {
-1.70852, 0.6162, 0.1547, 0.25559, -0.17943, 0.88238, -1.15952, -1.06072, 1.43417, 0.93432, 0.44717
}, {
0.48525, -1.28739, 0.60845, -0.80774, -0.29382, -2.33777, 0.23739, 0.6823, -0.85995, -0.01179, 0.28423
}, {
-0.10854, -1.25499, -0.14595, 0.37788, -1.29466, 0.52944, -0.9895, 0.78853, 0.32632, 0.39737, -1.07228
}, {
-0.6518, -1.03488, 0.76509, -0.07791, 0.86589, -0.25183, 0.23714, -0.84766, -0.38282, 0.22691, -0.86565
}, {
-0.12801, -0.30321, -0.16686, -0.58037, -0.60772, -0.19132, -0.84498, -0.68972, -0.06952, 0.67015, 0.37357
}, {
-0.1967, -0.50677, -1.14962, 0.29371, 0.14083, -0.05726, -0.43521, -0.08159, -0.67026, -0.43583, 0.56162
}, {
0.03139, 0.50596, -0.5019, 0.25716, 0.48878, 0.07808, -0.90207, 0.11823, 0.36628, 0.44459, -2.11739
}, {
0.82055, 0.47987, -0.30151, 0.31764, 0.29985, -0.23494, 0.49396, -0.50779, -0.75716, -0.62859, -1.17464
}, {
0.12839, 0.01299, 0.34768, 0.21922, -0.38832, 0.0087, -0.80133, -1.29028, 0.41128, -1.64659, -0.98756
}, {
-0.27835, 0.07419, -0.31831, 0.46878, 0.36533, -1.1541, -0.17588, -0.13963, -0.15015, -1.9052, 0.35374
}, {
-0.34957, 0.21608, -0.17298, -0.58154, -0.26566, 0.20053, 0.089, -0.60531, -0.81555, -0.3599, 0.21095
}, {
-0.25128, -0.94525, 0.80958, -0.18, 0.34874, -0.2743, 0.35941, -1.41171, -0.44216, -0.32408, -0.34479
}, {
0.48457, -0.12943, -0.01585, -0.13138, 0.13079, 0.76088, -0.32619, 0.47488, 0.3262, -0.03177, -0.72607
}, {
0.00835, -1.03024, 0.23856, 0.29576, -1.19018, 0.39778, 0.46887, -0.7163, 0.60645, -1.00585, -0.37923
}, {
0.79857, -0.01606, -0.19139, -0.98751, 0.09528, -0.13839, 0.79198, 0.13481, -0.5144, 0.03355, -0.67693
}, {
0.68533, -0.14783, 0.3391, -0.20861, 0.07483, -0.97218, -0.45835, 0.74242, 0.31404, -0.88202, -1.05987
}, {
0.82504, -0.2133, 0.47118, 0.33107, -0.3306, -0.30005, -0.26481, 0.00488, -1.52186, -0.01033, -0.61597
}, {
0.1738, -1.24939, 0.36464, 0.18008, -1.2408, -0.14703, 0.15862, -0.91909, -0.27114, -0.96206, -0.35273
}, {
-0.08432, 0.09491, 0.29217, 0.07136, 0.60962, 0.21057, 0.26778, 0.24327, 0.39113, -0.38831, -2.07983
}, {
-1.92299, 0.15323, 0.49417, 0.982, -0.53159, 1.93545, -0.17153, -0.63273, 0.0708, -1.55828, 0.3282
}, {
-0.06625, -1.39154, -0.43597, -0.09588, -1.62237, 0.42738, -0.8637, 1.27799, -0.12447, 0.76853, -1.20097
}, {
-0.54668, -1.79172, -0.48902, 0.42655, -1.30163, 0.6138, -0.81229, 0.99529, 0.52158, 0.64626, -1.18387
}, {
0.44404, -0.31527, 0.35288, -0.39309, -0.14558, 0.57398, -0.22636, -0.2811, 0.21477, 0.09143, -0.88542
}, {
-0.85, 0.46858, -0.70378, -0.51212, 0.8536, -0.17843, -0.36202, 0.34205, 0.65222, 0.83603, 0.31358
}, {
-0.86404, -0.25641, -0.59589, -0.50631, -0.01864, -1.29654, -0.38089, 0.37412, 0.06186, 0.0429, 0.31795
}, {
1.95817, -0.35561, -0.81298, -0.85661, -0.04121, -0.58592, 0.91209, -0.48417, -0.81314, 1.49923, -0.03321
}, {
-0.81667, -1.40239, -0.66577, 0.35137, 0.12648, 0.2593, 0.55096, 0.17336, 0.91514, -0.19018, -1.41851
}, {
-1.30555, 0.7252, 0.36305, -0.21218, 0.28045, 0.25874, -0.39848, 0.33863, 1.13733, 0.06697, -0.44686
}, {
0.77445, -0.1696, -1.40039, -0.03095, 0.10626, -0.2703, 0.36869, -0.8563, -0.48302, -0.2438, -0.13702
}, {
-0.09572, -0.46477, -0.44543, -0.70615, -0.38608, -0.66497, -0.12529, 0.5394, -0.0156, 0.07868, -0.04522
} };

const float head_b[N_CLASSES] PROGMEM = {
-0.21733, 0.22697, -0.6165, -0.11816, 0.17835, -0.3519, -0.59162, -0.45884, -0.52306, -0.3079, 0.54212
};