#include "w.h"

#include <avr/pgmspace.h>

const float rnn_in_w[N_CHANNELS][N_HIDDEN] PROGMEM = { {
-0.01612, -0.09412, -0.07124, 0.07948, -0.00429, -0.14527, 0.106, -0.02989, 0.09507, 0.06048, 0.07064, -0.08501, 0.05892, -0.07806, -0.15333, 0.0153, 0.05613, -0.11011, -0.02464, -0.03076, 0.0216, -0.06028, -0.02389, -0.04389, -0.00378, -0.0187, 0.27023, -0.20301, 0.20369, 0.01805, 0.3198, -0.04828, -0.10366, -0.02379, -0.17261, 0.15305, -0.02338, -0.05906, -0.18716, 0.0752, 0.0577, 0.01047, -0.14146, 0.0121, -0.03655, -0.02341, -0.03036, 0.08833, 0.00064, -0.07949
}, {
-0.21985, -0.06996, -0.0112, 0.15312, 0.04518, 0.0099, 0.10369, -0.06837, -0.08834, -0.01599, 0.03032, 0.00557, -0.15786, 0.00464, -0.04857, -0.06514, -0.00011, 0.04174, -0.09318, 0.00473, -0.13142, -0.01138, -0.01346, -0.03208, -0.02638, -0.08567, 0.17158, 0.10189, 0.12545, -0.05033, 0.28056, 0.01391, -0.08468, -0.12493, 0.033, 0.05529, -0.01957, -0.02954, 0.10131, -0.0728, -0.07993, 0.05568, 0.03998, 0.05103, 0.06467, -0.13567, -0.10817, -0.05734, -0.08899, 0.00256
}, {
-0.02796, -0.12767, -0.24923, 0.14917, 0.30967, 0.44026, 0.56659, 0.12435, 0.51581, -0.03134, -0.23082, -0.15548, -0.11601, -0.13275, -0.38004, -0.25281, -0.47172, -0.05135, -0.15221, 0.01095, 0.05457, 0.35686, -0.26684, 0.06367, -0.17711, 0.0106, -0.24455, 0.10274, 0.33996, -0.22024, 0.8677, 0.11387, 1.31403, -0.44008, 0.21341, 0.0811, 0.03619, -0.26304, -0.17431, -0.04228, 0.73211, 0.16305, -0.04684, -0.3099, 0.09403, -0.17819, -0.96225, 0.00242, -0.12397, 0.27276
}, {
0.39014, 0.11241, -0.12544, 0.72234, 0.41422, 0.69448, 0.93918, 0.09389, 0.62566, -0.34594, -0.22934, 0.14381, 0.16973, -0.73635, 0.10836, -0.50062, 0.10583, -0.27333, 0.14885, -0.03435, -0.32753, -1.11565, 0.46529, -0.16619, -0.11679, -0.03657, 0.23151, -0.38113, -0.21843, -0.20841, 0.80037, 0.2552, -0.15215, 0.20619, 0.57952, -0.17314, -0.29688, -0.3033, -0.45767, 0.13154, 0.72937, 0.41968, -0.42164, 0.21798, -0.3292, 0.50035, -0.92079, 0.21726, 0.48755, -0.26113
}, {
0.30998, -0.78417, 0.10111, 0.22731, 0.71393, 0.7027, 0.27565, -0.44571, 0.45701, -0.23988, -0.17579, -0.45239, 0.49037, -0.85515, -0.58375, -0.20165, 0.3244, -0.21336, -0.19214, -0.04541, -1.29954, -0.05473, -0.31817, -0.67983, -0.09456, -1.01768, 0.57073, -0.99551, 0.13371, 0.21374, -0.86734, 0.32462, 0.70007, 0.05206, -0.30057, -0.30884, -0.62442, 0.00829, -0.15507, -0.06974, -0.16713, 0.37678, -0.14381, 0.54051, -0.28537, 0.52768, -0.65544, -0.09105, 0.66577, 0.0929
}, {
0.59872, -1.39738, -0.0553, 0.13355, 0.59208, 0.34991, 0.09877, -0.49497, 0.44515, -0.13343, 0.21605, -0.37217, 0.71124, -0.97518, 0.5335, 0.21356, -0.5491, 0.28715, -0.73729, 0.20301, -0.07663, 1.44566, 0.09679, -0.39747, -0.3323, -1.05065, -0.17888, -2.10924, 0.2356, 1.15115, -0.06498, 0.66573, -0.58888, -0.31636, 1.07985, -0.19508, -1.03182, -0.24734, -0.34387, -0.16149, -0.13186, 0.21392, -0.15129, -0.17038, 0.15683, 0.55758, -0.75222, -0.01539, 0.12405, 0.53605
}, {
0.28798, -1.42514, 0.20291, -0.06635, 0.15382, 0.38941, 0.03734, -0.66701, 1.03018, -0.10489, 0.1728, 0.60154, 0.74459, -0.66308, 0.28466, 0.0722, -0.3284, -0.12934, 0.16711, 0.2286, -2.28988, 0.26706, 0.86436, -0.6055, -0.18056, -1.34196, -0.54439, -0.80383, 0.68479, -0.4166, -0.57678, 0.34769, -0.07621, -0.26012, 0.46394, 1.13402, -0.79041, -0.00695, -0.14211, 0.10025, 0.17476, 0.10676, -0.38851, -1.11113, 0.13307, 0.67984, -0.83657, 0.1019, -0.13759, -0.37316
}, {
0.58684, -1.16457, 0.24553, 0.1444, -0.09789, -0.43194, -0.13376, -0.74972, 0.65572, 0.19457, 0.03145, 0.94603, 0.16258, -0.52951, 0.10749, 0.48531, -0.23481, -0.39119, 1.01455, 0.04415, -0.75793, -0.02657, -1.12321, -0.31851, -0.02931, -1.06237, -0.20137, -1.6529, 0.57428, -0.39666, -0.09265, -2.2655, 0.53837, 0.15151, 0.22211, 0.33545, -0.56466, 0.13981, -0.03291, 0.01008, -0.07566, -0.36993, -0.19216, 0.27146, 0.209, 0.13626, -0.69426, 0.03396, 0.03785, 0.04748
}, {
0.35211, -0.74862, 0.21066, 0.66418, -0.06581, -0.25614, -0.22769, -0.68657, 0.20563, 0.16331, -0.11347, 0.8537, 0.23155, -0.46921, 0.20358, 0.08987, -0.20398, 0.01643, 0.13692, -0.14044, 0.82543, -0.04278, -0.12683, -0.53189, -0.13835, -0.9507, 0.29856, -1.84293, 0.40304, -0.47772, -0.82093, -0.82189, 0.58067, 0.06217, 0.31513, -1.9686, -0.74123, 0.24744, -0.43685, -0.00857, 0.28531, -0.17884, 0.09776, 1.01514, -0.27322, -0.56473, -0.41062, -0.08965, -0.03624, 0.09084
}, {
0.09148, -0.75731, 0.64348, 0.49261, -0.09642, -0.60464, -0.1606, -0.66918, 0.52557, 0.12256, -0.11015, -0.03086, 0.37352, -0.12307, -0.48149, -0.02587, -0.18349, 0.00451, -1.4896, -0.00732, 0.58173, -0.0039, 0.9713, -0.42182, -0.19057, -0.86572, 1.21839, -0.70344, 0.20906, -0.29326, -0.55454, 0.54616, 0.84292, -0.0195, 0.40972, -0.51355, -0.75899, 0.16175, -0.08525, -0.13948, -0.09441, -0.0632, 0.57178, 0.10882, -0.36472, -1.02148, 0.02555, -0.16392, -0.19933, 0.05833
}, {
0.45942, -0.66749, 0.59469, -0.17916, 0.02552, -0.74831, -0.2134, -0.44153, 0.59659, 0.01861, -0.02944, -0.1454, 0.39937, 0.10675, -0.38787, 0.00082, -0.06553, -0.20909, -0.79408, -0.02363, 0.51873, 0.0352, 0.35035, -0.23339, -0.09218, -0.79976, 0.51374, 0.4034, -0.4288, -0.43406, -1.07813, 0.6935, -0.07206, 0.04238, 0.03521, 1.05301, -0.8007, -0.04081, -0.04322, 0.12476, 0.41187, -0.16489, -0.14677, -1.67493, -0.0888, -0.65524, 0.69829, -0.29956, 0.39172, 0.5791
}, {
0.53908, -0.63242, -0.60359, -0.34962, -0.00355, 0.19276, -0.18507, -0.63793, 0.39511, 0.13509, 0.00339, 0.09856, 0.25868, -0.00405, -0.79477, -0.35053, -0.80475, -0.23495, 0.68987, 0.15787, 0.49752, -0.03392, -0.96118, 0.02476, -0.38311, -0.68015, 0.6121, 0.54841, -0.6713, -0.35212, -0.88741, -0.10704, -1.54287, -0.29572, 0.61112, 0.61258, -0.45443, 0.27387, 0.1075, -0.06813, 0.59064, 0.31479, -0.87662, -0.40911, -0.17952, -0.53285, 0.75387, 0.15708, 0.4728, -0.05121
}, {
0.28312, -0.55838, -1.44874, -0.69116, 0.04193, -0.02094, 0.16967, -0.60443, 0.26739, 0.07219, 0.06466, 0.20917, -0.22542, -0.02703, 0.07093, -0.08198, -0.42823, 0.04851, 0.62739, 0.02159, -0.06259, 0.07356, 0.03051, -0.182, -0.83553, -0.42198, 0.28879, 0.59945, -0.6157, -0.60784, 0.32741, -0.13794, -0.26671, -0.87146, 0.47551, -0.43311, -0.03453, 0.30158, -0.24244, -0.25156, -0.121, 0.49737, 0.0606, -0.48139, 0.01601, -0.96207, 0.13284, 0.82129, 0.19784, 0.44958
}, {
-0.61142, -0.42661, -1.37647, -0.44753, 0.07975, 0.27783, 0.13818, -0.7167, -0.32802, -0.10856, 0.0377, 0.16598, -0.2217, 0.25124, 0.73444, -0.1258, -0.67067, 0.0018, -0.17728, 0.07285, 0.0918, -0.05099, 0.00745, -0.44741, -0.99922, -0.07067, 0.40888, 0.6571, -0.2833, -0.22994, 0.47974, -0.07235, 0.74416, -1.55735, 0.08067, -0.06201, 0.06775, 0.05717, -0.2947, 0.16621, -1.66194, 0.54512, 0.77171, -0.44418, 0.59844, -0.72091, 0.07701, 0.70198, 0.72507, -0.14394
}, {
-0.92734, -0.38665, -1.54824, -0.05015, -0.00638, -0.38088, -0.07878, -0.93034, -0.40475, -0.05591, 0.00561, 0.01411, -0.50095, 0.19078, 0.72366, -0.32562, -0.44328, -0.18292, -0.16965, 0.0105, 0.13826, 0.02725, -0.1901, -0.53722, -1.06286, 0.07665, 0.56974, 0.40354, -0.25732, 0.20854, 0.42543, 0.04827, 0.38715, -2.16986, -0.29562, -0.0506, -0.15253, 0.19566, 0.00058, 1.31717, -0.10693, 0.69233, -0.02122, -0.40069, 0.43365, -0.19334, 0.15676, -1.0183, 0.15574, -0.17546
}, {
-0.91342, -0.53834, -1.41004, 0.10393, -0.02784, -0.20495, -0.02424, -1.09893, -0.37586, -0.10969, -0.03333, -0.03095, -0.40268, 0.15032, 0.547, -0.58262, 0.19525, -0.23183, -0.13038, -0.09068, -0.21712, -0.1249, -0.04872, -0.96213, -1.03241, -0.01668, 0.36276, 0.39662, -0.36016, 0.61216, -0.01354, -0.08526, 0.09807, -2.1708, -0.13622, -0.12918, -0.30034, 0.69115, 1.24588, -0.24311, 1.11008, 0.45583, -0.36863, -0.30956, 0.67285, -0.13279, 0.35303, -1.48918, 0.21254, -0.30866
}, {
-0.82863, -0.75657, -1.54566, -0.12555, -0.10356, -0.53689, -0.27219, -1.12849, -0.08217, -0.05742, -0.00808, 0.03814, -0.29985, 0.03256, 0.52543, -0.51649, 1.05838, -0.53059, -0.0225, 0.03933, -0.00626, 0.06135, 0.01452, -0.55052, -0.83936, 0.17165, -0.23183, 0.3133, -0.37666, 0.45293, 0.02755, -0.00893, 0.04098, -1.90768, -0.54329, -0.09811, -0.30444, 0.1712, 0.81192, -1.61288, 0.53938, -0.00117, -0.29274, -0.36095, 0.63169, 0.02763, 0.54658, 0.82318, 0.80442, 0.09545
}, {
-0.89717, -0.80582, -1.61818, -0.21795, 0.10611, -0.50744, -0.42806, -0.94795, 0.16916, -0.67871, -0.43565, -0.03506, -0.53354, -0.07515, -0.603, -0.91381, 1.05214, -0.12477, -0.00184, -0.10386, -0.09475, -0.14217, -0.00509, 0.60885, -0.76614, 0.29454, 0.01818, 0.25768, -0.5775, 0.5969, 0.50148, 0.01869, -0.05103, -1.7938, 0.01267, -0.01426, -0.42899, 0.80237, -0.06487, 0.36341, -0.08821, 0.28284, -0.27758, 0.00967, -1.31852, 0.08197, 0.51683, 1.55548, -0.79729, 0.18541
}, {
-0.45883, -0.25939, -0.52124, -0.23106, 0.04994, -0.02186, 0.59292, -0.70739, 0.04441, -0.78143, -0.67065, 0.97476, -0.30097, -0.1038, -0.99653, -0.30882, 0.41177, -0.83058, 0.03302, -0.63533, 0.22774, 0.22103, 0.25162, 0.49791, -0.99835, 0.20598, -0.60512, 0.29705, -0.81111, 0.51936, 0.36024, 0.11461, 0.00452, -1.04614, -0.04005, -0.05131, -0.47866, -0.42327, -0.3141, 1.0093, -0.1313, 0.12486, -0.03976, 0.10392, -0.977, -0.08767, 0.27164, -0.15963, 0.35798, 0.45512
}, {
-0.84325, 0.14285, 0.32516, 0.08055, 0.1016, -0.65858, 0.70182, -0.69605, -0.22848, -0.92224, 1.38508, 0.33164, -0.31083, -0.22541, -0.67087, -0.98193, 0.11711, -0.51257, 0.03181, -0.65086, 0.0104, -0.09921, 0.03438, 0.53199, -0.76224, 0.02198, -0.13066, 0.02198, -0.74659, 0.15939, 0.41365, 0.01, -0.0781, -0.2408, -0.08816, 0.25269, -0.437, -1.3198, -0.25671, -0.20074, -0.14831, -0.26263, 0.03648, 0.60157, 0.71464, -0.10794, 0.12798, -0.6555, 0.37125, 0.30497
}, {
-0.7322, 0.38903, 0.34769, -0.05954, -0.738, -0.21792, -0.72719, -0.59222, -0.34196, -1.33231, 1.34213, -0.23706, -0.26018, -0.15387, 0.08136, -1.38788, 0.43913, 0.70368, 0.1131, 1.24376, 0.01315, -0.06583, -0.02128, 0.51265, -0.29532, 0.17859, -0.42517, 0.13948, -1.35413, -0.5514, 0.1873, 0.02226, 0.09524, -0.27264, 0.2582, -0.01979, -0.43733, -0.67082, -0.02023, -0.33452, -0.0438, -0.42398, -0.02238, 0.1307, 0.81408, 0.20423, 0.29982, -0.09124, -0.32432, 0.38433
}, {
-0.62757, 0.32488, 0.42631, -0.0729, -0.07921, -1.16392, -0.76795, -0.64401, -0.25695, -1.04728, -1.22609, -0.12869, 0.00061, -0.32256, -0.08693, 0.11348, 0.35213, 1.21097, 0.14319, 1.96074, -0.07599, -0.33377, -0.20385, 0.4607, -0.46849, 0.18535, -0.39265, 0.30295, -1.02748, 0.38265, -0.16284, 0.0977, 0.18491, -0.4132, 0.88393, -0.00779, -0.33595, -0.99163, -0.0158, 0.15496, -0.03197, 0.00256, 0.02752, -0.07089, 0.08462, 0.19965, 0.24025, 0.07968, 0.14825, -0.44494
}, {
-0.80168, 0.63132, 0.4414, -0.3379, 1.83045, 0.27074, 0.67151, -0.60274, -0.83814, -0.96033, -1.26195, 0.23406, -0.20701, -0.54994, 0.53233, 0.70333, 0.51199, 0.78759, 0.00642, -0.33497, 0.19801, -0.18648, -0.17291, 0.60714, -0.90195, 0.31297, -0.11069, 0.04773, -1.23401, -0.29551, 0.14647, 0.09778, -0.7003, -0.65781, -0.27622, -0.00553, -0.63196, -1.191, -0.33975, -0.02891, -0.00704, 0.09764, 0.35323, 0.19649, 0.55325, -0.02457, 0.39682, -0.07914, -0.54048, 0.24656
}, {
-0.9743, 0.54563, 0.33923, -0.66081, 0.69444, 0.03083, -0.55965, -0.57436, -0.49224, -1.13827, 0.78214, 0.18986, -0.84178, -0.65203, 0.09327, 1.02631, 0.91971, 1.23962, -0.06356, -1.54274, -0.10315, 1.2005, -0.42417, 0.74723, -0.71978, 0.25446, 0.3833, 0.42469, -1.52798, -0.23543, 0.15416, 0.00974, 0.00459, -0.71216, 0.59874, 0.02523, -0.60863, -0.79523, -0.12781, -0.02294, -0.03163, 0.57116, 1.14238, -0.56227, 0.43894, -0.23294, 0.72253, -0.02307, -0.27369, -0.75288
}, {
-0.81112, 0.41932, 0.22545, 0.24047, -1.87219, 1.23131, 0.09368, -0.0356, -0.47269, -0.93759, 0.08518, 0.12903, -1.22514, -0.51991, -0.22064, 0.50325, 0.31775, 0.67288, -0.16617, -0.08964, 0.19889, 0.83357, -0.15156, 0.70147, -1.01248, -0.39631, 0.45196, -0.01555, -0.27448, 0.18635, -0.24687, -0.18656, 0.11971, -1.06103, 0.00095, -0.06309, -0.44098, -0.98055, -0.00036, 0.09474, 0.07861, 0.56331, 1.06635, -0.32265, 0.30814, -0.37714, 0.41932, -0.0007, -0.11037, -0.09659
}, {
-0.01938, -0.19189, 0.24373, 1.4324, -0.20482, 0.77584, -0.04208, 0.41751, -0.32417, -0.75611, 0.07934, 0.04244, -0.89316, -0.63643, 0.13747, -0.6883, 1.0877, 0.99149, -0.26819, -0.12393, 0.56082, -1.86677, -0.28423, 0.49217, -0.18057, -0.58038, -0.06867, 0.13401, 0.57722, 0.15396, -0.60761, -0.57542, 0.42749, -0.34879, 0.4297, 0.51963, -0.39957, -0.18535, 0.35681, 0.14903, -0.22373, 0.04479, 0.71507, -0.61672, 0.17424, 0.04111, -0.0208, -0.07509, -0.27998, 0.43787
}, {
0.43969, -0.3451, 0.19442, 0.5187, 0.04238, 0.20859, -0.0885, -0.12087, 0.12931, -0.11083, -0.13632, 0.04828, 0.1661, 0.02868, -0.45513, -0.40465, 0.91305, 0.71756, -0.40461, 0.20465, 0.67617, 0.21965, 0.20996, 0.82365, 0.16484, -0.13811, -0.14092, -0.67804, -0.16975, -0.18802, 0.76518, -0.73933, -0.11784, 0.48215, 0.20788, 0.5289, -0.32767, 0.69356, -0.09168, -0.10234, -0.11872, -0.34639, 0.42261, 0.0098, -0.41238, -0.24913, 0.44997, -0.17523, 0.3129, -0.31178
}, {
0.0876, -0.04896, -0.0175, 0.10354, -0.03332, 0.30699, -0.03844, -0.03069, 0.04046, 0.00849, -0.03972, -0.07254, 0.08293, 0.02819, -0.03714, -0.05108, 0.22489, -0.22312, 0.06032, 0.0572, 0.23517, 0.032, -0.01656, 0.08995, -0.04395, 0.02974, -0.15705, -0.01605, 0.09652, -0.17563, -0.19672, 0.04901, -0.11979, -0.02642, -0.03794, -0.05457, -0.12513, 0.1391, -0.11945, 0.04135, -0.01039, -0.18382, 0.03605, 0.09843, -0.16518, 0.01668, 0.20065, -0.00923, 0.09906, -0.13681
} };

const float rnn_h_w[N_HIDDEN][N_HIDDEN] PROGMEM = { {
0.00028, -0.00024, 0.00024, -2e-05, 1e-05, 0.0, 4e-05, 0.00022, 9e-05, -0.00046, 4e-05, 0.0, 2e-05, 0.00021, -0.00013, 0.00025, 3e-05, -0.00013, 3e-05, -2e-05, 0.00012, -4e-05, 1e-04, 0.00019, 0.00011, -6e-05, 1e-05, -0.0, 0.00015, -3e-05, 0.00018, -2e-05, -0.00018, 6e-05, 0.00027, 0.00011, 7e-05, -0.00012, -2e-05, 1e-04, -0.00018, 4e-05, 0.00018, 2e-05, -0.00011, -7e-05, 0.00019, 0.0, -3e-05, -3e-05
}, {
-1e-05, 6e-05, -0.00018, 0.0002, -0.00015, -4e-05, 7e-05, 9e-05, -0.00014, 9e-05, 5e-05, -0.00015, 0.0004, -4e-05, -2e-05, 9e-05, -0.00044, 3e-05, 1e-05, 5e-05, 0.00016, 0.00011, -0.00013, 1e-05, -0.00015, -1e-05, -4e-05, 0.00012, 0.00012, -0.00011, 0.00015, -4e-05, 8e-05, 0.0, -3e-05, -7e-05, -1e-05, 1e-05, 0.00011, -1e-05, -0.00021, 1e-04, -0.0, -0.00021, 0.00026, 0.00045, 0.00014, 9e-05, 0.00037, -0.00039
}, {
0.00012, 7e-05, -1e-05, 0.00022, 0.00017, -0.00019, -0.00024, 3e-05, -7e-05, -0.00014, 3e-05, -0.00026, -0.00011, 0.0003, 0.0003, -8e-05, -5e-05, -0.00011, -1e-05, 0.00017, 0.00016, -9e-05, -3e-05, 0.00016, -0.00017, 0.0005, 5e-05, -1e-05, -9e-05, -0.00012, -0.00011, 0.00016, 0.00033, 4e-05, -0.00016, 0.00029, -1e-05, 0.0, -7e-05, 4e-05, -2e-05, 7e-05, -0.00014, -0.00022, 4e-05, -0.00025, -0.00025, 0.00027, -0.00021, -4e-05
}, {
2e-05, 3e-05, -2e-05, 0.00014, 1e-05, -4e-05, 0.00041, -0.00021, 2e-05, 7e-05, -0.00011, 0.00026, 0.00011, -5e-05, -0.00041, -0.0, 0.0002, 1e-04, 0.00028, -9e-05, 0.0, 0.00026, -0.0003, -9e-05, 0.0, 0.00011, 0.00017, -0.00019, 0.00013, 8e-05, 0.00037, -0.00032, -0.00015, -3e-05, 1e-05, -0.00019, 0.00012, -8e-05, -2e-05, 0.00011, 0.00024, 0.00011, -7e-05, -0.00014, -0.00011, 0.0003, 1e-05, -0.00014, 0.00015, -6e-05
}, {
0.00028, 4e-05, -5e-05, -0.0, 0.00033, 4e-05, 0.00027, -1e-04, 4e-05, -1e-04, -2e-05, 0.00016, -6e-05, -9e-05, 8e-05, -8e-05, -5e-05, -0.00025, 0.0002, -1e-04, 4e-05, 0.00013, 0.00017, 0.00019, -3e-05, -5e-05, -0.00015, -0.00015, 4e-05, 0.00029, -5e-05, 0.00029, 3e-05, -0.00012, -0.00015, 0.00015, -1e-04, -1e-05, 1e-04, -3e-05, 0.00017, 0.00013, 0.00013, -1e-05, -0.00021, -0.00016, -0.00033, 2e-05, -0.00016, 3e-05
}, {
-0.00012, -1e-04, -0.00011, 1e-05, 3e-05, 0.00013, 0.0003, 0.00015, 6e-05, -0.00015, -1e-05, 3e-05, 6e-05, 0.00014, 4e-05, -4e-05, 8e-05, -0.0, -0.0, 0.00028, -1e-04, 6e-05, -9e-05, -0.00027, -3e-05, 0.00013, -0.00014, -0.00019, -2e-05, -0.00011, -0.00017, 0.00011, -9e-05, -8e-05, 0.00025, -0.00037, 2e-05, 0.00016, 0.00012, 0.00017, 8e-05, -8e-05, 0.00016, 4e-05, -9e-05, 0.00018, 0.00025, 1e-05, -1e-04, 8e-05
}, {
-0.0, 0.00019, -0.0002, 5e-05, -4e-05, -0.00017, -1e-05, -6e-05, 2e-05, 8e-05, -1e-05, -0.00033, 0.0, -0.00027, 0.00013, 0.00018, 9e-05, 8e-05, 3e-05, -9e-05, 5e-05, 0.00016, 0.00018, -0.00033, 0.0, -0.00011, -6e-05, 0.00013, 6e-05, 9e-05, 0.00037, -8e-05, 0.00027, 0.00016, 9e-05, 6e-05, 0.00015, 7e-05, -1e-04, -0.00012, -0.00013, 6e-05, 6e-05, 0.0, 0.00013, -8e-05, 0.00019, -7e-05, 1e-05, -0.00041
}, {
-0.00014, 5e-05, -0.00011, 0.00033, 6e-05, -0.00014, -0.00029, 0.00011, -6e-05, -1e-05, 0.00032, 0.00015, -3e-05, 0.00014, 0.0, -4e-05, 0.00028, 0.0, -2e-05, 0.00014, -9e-05, 7e-05, -0.00029, 0.00015, -8e-05, -0.00015, -0.00013, 0.00022, 1e-04, -0.00022, 0.00014, -0.00027, -0.0002, 5e-05, 0.00016, 8e-05, -7e-05, -1e-04, 0.00015, -1e-04, -7e-05, -0.00012, 0.00012, 0.00034, -2e-05, -0.00019, -0.00022, -6e-05, 1e-04, -0.00028
}, {
-4e-05, -0.0004, 2e-05, 0.00019, 0.0002, -0.00019, -0.00021, 0.0003, 2e-05, 0.00014, 0.00023, 0.00015, 9e-05, 0.00013, -0.00019, -4e-05, -0.0002, -9e-05, 0.00017, 1e-05, -0.00013, 0.00014, -0.00019, 0.00014, -4e-05, -0.00023, 8e-05, -0.00011, 0.00017, -1e-04, -0.00015, 5e-05, 6e-05, -0.00018, -2e-05, 0.00015, -0.00013, -6e-05, -5e-05, 0.00013, -0.00024, 0.00012, -1e-04, 0.00013, 0.00021, -0.00013, -5e-05, -5e-05, 0.00025, 0.00013
}, {
0.00022, -6e-05, -3e-05, 5e-05, -7e-05, -0.00041, 4e-05, 6e-05, 0.0003, -4e-05, -0.0002, 4e-05, -6e-05, 0.00015, -0.00016, -0.00016, -0.00013, -9e-05, -1e-04, -0.00019, 0.00027, 0.00016, 0.00013, 9e-05, -3e-05, -0.00012, -0.0002, -0.00017, -0.00015, 5e-05, -0.0004, 2e-05, 0.00015, 6e-05, -1e-05, 0.0, 9e-05, -0.00031, 3e-05, -0.00028, 0.00023, 8e-05, -1e-05, 0.0002, 7e-05, -9e-05, -0.00021, -0.00028, 0.00016, -0.00024
}, {
-0.00029, -6e-05, 1e-05, 1e-04, -0.00021, -0.00021, -9e-05, 3e-05, -4e-05, 5e-05, -7e-05, -9e-05, 3e-05, -0.00014, 3e-05, -4e-05, -1e-05, -2e-05, -4e-05, 1e-05, 5e-05, -3e-05, 0.00024, -1e-04, -9e-05, -0.0, 0.00017, -2e-05, 0.00015, 7e-05, -3e-05, 1e-05, -0.00013, -3e-05, -9e-05, -1e-04, -0.00038, 0.0002, -0.0, -0.00019, 6e-05, 7e-05, -4e-05, 1e-05, 6e-05, -0.00022, 0.00015, -8e-05, -8e-05, -9e-05
}, {
-8e-05, -7e-05, -4e-05, 9e-05, -5e-05, -0.00015, -4e-05, -3e-05, 1e-05, -0.00013, -0.00041, -0.00011, -4e-05, -6e-05, -0.00028, -1e-04, -5e-05, 0.00016, 6e-05, -2e-05, 0.00014, 5e-05, -0.00021, 0.00014, 0.00056, 1e-05, -5e-05, -6e-05, -7e-05, 0.00018, 1e-05, -7e-05, -9e-05, 3e-05, -4e-05, 5e-05, 1e-04, 1e-05, 0.0004, 2e-05, -0.00029, -0.0002, -0.00025, 5e-05, 0.00011, 5e-05, -1e-05, -0.00013, 0.00015, -0.0
}, {
-1e-04, 3e-05, -6e-05, 8e-05, -0.00014, -0.00017, 0.00013, -7e-05, -2e-05, -0.00024, 0.0, 0.0002, -1e-05, 9e-05, -4e-05, -7e-05, 4e-05, 3e-05, 0.00012, -6e-05, 0.00012, -0.00026, -0.0, -0.00022, 2e-05, 0.00013, -0.00015, 0.0, -0.00019, 0.0002, 1e-05, -0.00029, 0.00011, 6e-05, 0.00019, -5e-05, 0.00022, -1e-05, -0.00022, -6e-05, 7e-05, -4e-05, -0.00031, -8e-05, -0.00028, -0.00015, -1e-05, 0.00021, 9e-05, -0.00035
}, {
0.00021, 1e-04, 0.00022, 9e-05, -1e-05, 0.00025, -1e-04, 0.00021, 9e-05, 1e-05, 0.00019, 9e-05, -0.0002, -0.00019, 0.00013, -0.0002, -0.0, -0.00022, -7e-05, 3e-05, -7e-05, -3e-05, 0.00019, -1e-05, 2e-05, 0.00014, 0.00028, 2e-05, -0.0, -9e-05, 0.00011, 3e-05, 2e-05, 3e-05, 0.00016, 9e-05, -0.0003, 0.00029, -4e-05, 0.00037, -1e-04, -7e-05, 0.00028, 0.00031, 0.00014, 1e-05, -5e-05, -0.00013, 0.00021, 3e-05
}, {
0.00033, -0.00017, 0.00013, 0.00012, -7e-05, -2e-05, -1e-05, 1e-05, 8e-05, -0.00018, 0.00015, -0.00028, -0.00014, -0.00019, -2e-05, -0.00011, 9e-05, -0.0002, -3e-05, 3e-05, -0.00018, -8e-05, 0.00011, -9e-05, 1e-05, -0.00013, -0.00014, -5e-05, 8e-05, 9e-05, -0.00019, 1e-05, 0.00017, -0.00011, 3e-05, -7e-05, 0.00019, 3e-05, 0.0, -0.00014, -0.0004, 0.00024, 0.00015, -5e-05, -2e-05, -4e-05, 6e-05, -0.00019, 0.0002, -0.00011
}, {
1e-05, -0.00019, 0.00021, 4e-05, -5e-05, 1e-05, -0.00032, 1e-04, -0.00018, 6e-05, 1e-05, -1e-05, 0.00013, 0.00012, -5e-05, -4e-05, 0.00014, 0.00016, -0.0, 6e-05, 0.00016, -0.00016, 1e-04, -1e-05, -0.00012, 1e-05, 0.00013, -6e-05, -6e-05, -0.00018, -0.00013, -7e-05, -1e-05, 0.00013, -0.0002, 0.00019, -0.00019, 8e-05, -3e-05, 3e-05, -1e-05, 8e-05, 5e-05, 5e-05, 5e-05, 0.00011, -5e-05, 6e-05, 0.00013, 0.00029
}, {
-0.00012, -8e-05, 0.00017, 0.00015, -0.00014, -0.00015, 0.0004, 0.00014, 3e-05, -1e-04, -0.00011, 1e-05, 2e-05, -7e-05, 0.00011, -0.00011, 9e-05, 4e-05, -8e-05, 0.0002, 0.00015, -9e-05, -3e-05, -1e-04, 1e-04, 5e-05, -5e-05, 0.00028, -5e-05, -0.00016, -7e-05, 0.00032, -8e-05, 2e-05, -6e-05, 0.00017, -0.00018, -9e-05, 5e-05, 0.00028, 5e-05, -2e-05, 0.00024, 0.0, 0.00016, 0.00023, 0.00022, -6e-05, 0.00021, -6e-05
}, {
-0.00014, -1e-05, -0.00024, 0.00026, -0.0002, 9e-05, -4e-05, 5e-05, 5e-05, 0.00026, -1e-05, -2e-05, -1e-05, 1e-05, 0.00012, -8e-05, -0.00012, 4e-05, -0.00045, -2e-05, -4e-05, 4e-05, -6e-05, 0.00019, 0.00022, 5e-05, 0.00014, -0.00034, 9e-05, 7e-05, -0.00015, 1e-05, 6e-05, 3e-05, -0.00015, 0.00023, 0.00021, 1e-04, 6e-05, 1e-05, 4e-05, -0.00018, 0.00016, -0.00027, -0.00019, -4e-05, -0.00028, -0.00023, 6e-05, -0.00033
}, {
-6e-05, 0.00013, 7e-05, -0.00018, 6e-05, -0.00014, 4e-05, 5e-05, 8e-05, 0.00016, -0.00018, 1e-04, -4e-05, 0.00017, -0.0002, -0.00022, -0.00033, -0.00011, 0.00025, -0.00023, -3e-05, -0.00021, -2e-05, -0.00012, 4e-05, -1e-05, -0.00019, -3e-05, 0.00022, 1e-05, 0.00019, -9e-05, -0.00021, -4e-05, 2e-05, -0.00031, 0.00013, -7e-05, 9e-05, 0.00024, 0.0002, -8e-05, 6e-05, 4e-05, 0.00016, 2e-05, -1e-05, -0.00015, -6e-05, -3e-05
}, {
3e-05, 9e-05, -6e-05, -0.00029, -5e-05, -5e-05, -0.00011, 2e-05, 0.00042, 0.0002, -2e-05, 0.00012, -5e-05, 0.00024, -0.00012, -0.0, 0.00024, 0.00012, 0.00024, -0.00012, -6e-05, 3e-05, 4e-05, 8e-05, 5e-05, 0.00026, 2e-05, -1e-05, 0.0003, -0.00011, 0.00044, 0.0002, -7e-05, -4e-05, 1e-05, 7e-05, -0.00024, 0.00019, -0.0, -7e-05, 0.00017, 8e-05, 8e-05, -0.00025, 0.00027, -0.00011, 1e-05, 9e-05, -8e-05, -0.00013
}, {
-8e-05, 1e-05, -6e-05, 0.00019, -0.0, 7e-05, 0.0, -0.00015, -1e-05, -0.00025, -4e-05, 2e-05, -9e-05, 4e-05, 9e-05, 0.00016, 0.00029, -0.00011, -0.00016, 2e-05, -2e-05, -0.00035, -9e-05, 0.0, -0.00027, 0.00011, -0.00033, -7e-05, -0.00026, 0.00043, -1e-04, -0.00015, -0.00029, 0.00016, -9e-05, -0.00023, 5e-05, -0.00013, 6e-05, -0.00015, 6e-05, 2e-05, 9e-05, -0.00045, -4e-05, 0.00017, 0.00017, -0.00013, 0.00021, 0.00014
}, {
0.00022, -0.00015, 6e-05, 6e-05, 4e-05, -0.0, 7e-05, 0.00026, -3e-05, 0.00014, -0.00021, -3e-05, 0.0, -0.00022, -0.00021, 0.00017, 0.0, 7e-05, 0.00019, 1e-04, -4e-05, -1e-05, -1e-05, -2e-05, -1e-05, 0.00041, -3e-05, 0.00029, -0.00034, 0.00032, -0.00011, 0.00014, -0.0, -1e-04, 0.00019, -0.00019, -3e-05, 3e-05, 0.00022, 7e-05, -0.00011, 7e-05, 8e-05, -1e-05, -0.0, 0.00024, 0.00019, 4e-05, 1e-05, 0.00032
}, {
-0.00012, 5e-05, 0.0, -0.00014, 0.00013, 2e-05, -0.0004, -0.00013, 0.00038, 5e-05, -7e-05, -0.00025, -0.00012, -0.00016, 1e-05, -8e-05, -6e-05, -0.00011, 7e-05, -0.00016, -0.00011, 5e-05, -0.00015, -7e-05, -0.00016, -0.00014, 6e-05, 0.0, 0.00017, -4e-05, 0.00016, -3e-05, -5e-05, 0.00022, 8e-05, -0.00026, -0.00013, -2e-05, 1e-05, -4e-05, -9e-05, 0.00017, -7e-05, -1e-05, -0.00025, 0.00026, 0.00028, 0.0002, 3e-05, 3e-05
}, {
-0.00041, -2e-05, 1e-05, -0.00022, 8e-05, 8e-05, -0.00019, -6e-05, 5e-05, 6e-05, -3e-05, -9e-05, 4e-05, 0.00027, -0.00015, 1e-05, -9e-05, -5e-05, -3e-05, -0.0, -4e-05, 0.0002, -0.00032, 0.00028, 0.00017, 3e-05, -0.00023, -5e-05, -9e-05, -0.00021, 3e-05, 1e-04, -0.00012, 5e-05, 0.00029, 0.00014, 0.00014, -3e-05, 0.00015, -8e-05, -3e-05, 9e-05, -0.00015, 1e-05, -3e-05, 6e-05, -3e-05, -1e-05, -0.00012, 1e-05
}, {
0.00013, -0.00036, 0.00011, 4e-05, 1e-05, -0.00019, -0.00012, -8e-05, 7e-05, 9e-05, -5e-05, 2e-05, 3e-05, 8e-05, 1e-04, -7e-05, 3e-05, -0.00021, -0.00028, -0.00025, 5e-05, -0.00016, -0.00017, 1e-04, 0.00011, -4e-05, -4e-05, -5e-05, -0.00023, 0.00015, 7e-05, -0.00022, 8e-05, -9e-05, -1e-05, -0.00047, -9e-05, -0.00026, -0.00013, 1e-05, 2e-05, -0.00019, -0.00019, -0.00016, 0.00017, 1e-04, 7e-05, 0.00011, -0.00011, -0.00029
}, {
-0.0002, -7e-05, -0.00014, 9e-05, -7e-05, -0.00019, -0.00025, -0.00011, -3e-05, -4e-05, -6e-05, -4e-05, 8e-05, 0.00018, -1e-05, 4e-05, -0.00022, 1e-04, -3e-05, 5e-05, -1e-05, -3e-05, 1e-05, 0.00011, -6e-05, 1e-05, 0.00022, 1e-04, 0.00038, -1e-05, -5e-05, -6e-05, 6e-05, 0.00022, 1e-04, -0.00032, -0.00021, -6e-05, -0.00012, 7e-05, -0.0002, 7e-05, -1e-04, 2e-05, 0.00028, -0.00013, -0.00032, 8e-05, -1e-05, -1e-04
}, {
-3e-05, -0.00014, 8e-05, -0.00013, -0.00012, -0.00017, 0.00012, 1e-04, 0.0003, 1e-04, 0.00017, 8e-05, 0.00015, -0.00038, 6e-05, 1e-04, 0.00013, 0.00019, 1e-04, 4e-05, 0.00013, 8e-05, -0.0002, 0.00012, -6e-05, 4e-05, 0.00014, 2e-05, -0.00011, -0.00011, -2e-05, 1e-04, 3e-05, 8e-05, 0.00011, 2e-05, 8e-05, -2e-05, 1e-05, -0.0003, -0.00013, -0.00028, -3e-05, -0.0003, 0.00028, 0.00011, 6e-05, 0.00014, 9e-05, -0.00025
}, {
-0.00032, 3e-05, -0.00011, 5e-05, 0.00014, -0.00016, -1e-04, -0.00023, -2e-05, 0.00017, 0.0, -0.0, -0.00014, -1e-04, 0.0002, 0.00022, 0.0002, -5e-05, 2e-05, -0.00014, 0.00014, -5e-05, -3e-05, -0.00024, -0.00016, 4e-05, 0.00012, -0.00011, 0.00019, -0.0003, -0.00015, -0.00013, 6e-05, -0.00023, 3e-05, 0.0, 3e-05, 0.00026, 1e-05, 3e-05, 0.00015, 0.00027, 3e-05, -4e-05, 0.00023, 9e-05, 1e-04, 0.00013, 3e-05, 0.00012
}, {
6e-05, -0.00029, -1e-05, 5e-05, -0.0, 0.00027, -1e-05, -0.00019, -0.00011, 6e-05, 0.00015, -7e-05, -0.00011, 0.00013, -0.00014, -0.00012, -6e-05, -0.00019, -1e-05, 0.00011, -2e-05, -0.00027, -0.00026, 0.00021, 9e-05, 3e-05, 4e-05, 2e-05, 0.00011, -3e-05, -0.00042, -0.00027, 1e-05, 0.00026, 0.00021, -2e-05, 5e-05, -0.00014, -0.00042, -0.00011, -0.00015, -2e-05, 0.00013, -0.00011, 4e-05, -0.00012, -0.00012, -4e-05, -8e-05, -0.0
}, {
8e-05, -6e-05, -0.00026, 0.00014, -5e-05, 0.00019, 0.00013, 0.00034, 0.00011, -0.0002, -1e-04, 0.0, 0.00015, 9e-05, 5e-05, 0.00019, -0.00013, -0.00012, -0.00017, 0.00023, -0.0, -0.00023, 0.00032, -1e-05, -0.0, -1e-05, 1e-05, 3e-05, -4e-05, 0.00017, 0.00016, -8e-05, -0.00018, 2e-05, -7e-05, 1e-04, 0.00011, 0.00015, 3e-05, -0.00014, -0.00026, -5e-05, 8e-05, 3e-05, 4e-05, -0.00016, 0.0, 1e-05, -6e-05, 9e-05
}, {
0.00011, 0.00019, 0.00014, 3e-05, -1e-05, -9e-05, 0.00014, 6e-05, -0.0003, -6e-05, 1e-04, 0.00042, -8e-05, -6e-05, -0.00021, 1e-05, 3e-05, -1e-04, -0.00013, 0.00016, -4e-05, 5e-05, 0.00015, 0.0002, -0.00027, -6e-05, -8e-05, -3e-05, -0.00015, -0.00017, 2e-05, -1e-05, -5e-05, 0.00019, 0.00016, 0.00012, -0.00018, -0.00024, -6e-05, 1e-04, 0.00012, -8e-05, -0.00012, -0.00019, 7e-05, -0.00025, 0.00021, -1e-05, 5e-05, -1e-05
}, {
3e-05, 0.00013, -0.00045, 9e-05, 7e-05, -0.00028, 0.00024, -1e-05, 0.00019, -4e-05, -8e-05, -6e-05, -0.00023, 0.00033, 0.00011, -9e-05, -6e-05, -8e-05, -8e-05, 0.00014, -1e-05, -7e-05, -5e-05, 5e-05, -4e-05, -5e-05, 1e-04, 0.0, -5e-05, -0.00025, 9e-05, 3e-05, 0.00015, 6e-05, -5e-05, -1e-04, -0.00013, 0.00019, 0.00031, 0.00018, -0.00016, 7e-05, -0.00031, 3e-05, -0.00014, 8e-05, -0.00012, -0.00015, 6e-05, -2e-05
}, {
-0.00015, -7e-05, 0.00026, -0.00015, -6e-05, 2e-05, 0.00012, -2e-05, 0.00013, -3e-05, -0.00042, 0.00011, -1e-05, 0.00023, 0.00038, -0.00023, -5e-05, -3e-05, 0.00019, 0.00015, -2e-05, -9e-05, -8e-05, 0.00018, -0.00016, 0.00035, -2e-05, 0.00037, 5e-05, 0.0, -0.00018, 0.00016, 5e-05, -0.00012, -2e-05, 1e-05, 0.0, -5e-05, -0.0003, 1e-05, -8e-05, 0.0002, 0.00023, 5e-05, -0.00015, 0.00024, 3e-05, 5e-05, 0.00022, 0.00017
}, {
0.00024, -0.00016, -0.00023, -0.00022, 0.0, 2e-05, 0.00012, -8e-05, 0.00038, 7e-05, -5e-05, -6e-05, -0.00015, 0.00018, 0.00026, 4e-05, 6e-05, 0.00018, -0.00011, 1e-04, 3e-05, -5e-05, 0.00017, -0.00015, -0.00011, 0.00019, -1e-05, 0.00021, 0.00014, -0.0, -0.00013, 3e-05, 8e-05, -0.00013, -0.00029, -0.00019, -7e-05, -0.00038, 8e-05, -0.0, -0.00026, 9e-05, 0.00013, -0.00018, 8e-05, 9e-05, -3e-05, -1e-05, 3e-05, -8e-05
}, {
-0.00016, -0.00023, -0.00023, -6e-05, 8e-05, 0.00017, 8e-05, -0.00016, 0.00018, 1e-05, -0.00016, -0.00013, -0.00012, -0.00013, -1e-05, -6e-05, 0.00016, 0.00022, 8e-05, -0.00023, 0.00017, 0.00024, 0.00016, 4e-05, 0.00014, 3e-05, -6e-05, -1e-05, -5e-05, 0.00026, 0.00013, -0.00047, 0.00018, 0.00011, 0.00014, 0.00015, -3e-05, -0.00037, 0.00011, -0.0002, 6e-05, 7e-05, -8e-05, 0.00017, 0.00041, -0.00016, -0.00022, -3e-05, -1e-05, -9e-05
}, {
-0.00019, 8e-05, 3e-05, -0.00017, 4e-05, 0.00015, -0.00024, 9e-05, -0.00017, 0.00011, -0.0002, -0.00018, -5e-05, -1e-04, 6e-05, 0.00017, 0.0, 1e-05, -5e-05, -0.0, 0.00012, -8e-05, 1e-05, 0.00016, -0.00031, -7e-05, -1e-05, -0.00033, -0.00038, -0.00018, 4e-05, -2e-05, -0.00038, 5e-05, 0.0002, -0.0005, -4e-05, 0.00015, -3e-05, -0.00011, 7e-05, 0.00012, 0.00011, 3e-05, 0.0, -1e-04, -0.00022, 2e-05, 9e-05, 0.00031
}, {
1e-05, -0.00018, 1e-04, 7e-05, -0.00015, -5e-05, -0.00021, 8e-05, 0.00012, -2e-05, -6e-05, 0.0002, -2e-05, -6e-05, -0.0002, -0.00016, -1e-05, -0.00014, -6e-05, 0.00023, 6e-05, 0.00013, -0.00034, 0.00028, 7e-05, -8e-05, -0.0, 5e-05, -0.00027, -0.00024, 2e-05, -0.00035, -5e-05, -5e-05, -8e-05, -0.00033, 5e-05, 2e-05, 2e-05, 3e-05, -0.00019, -9e-05, -0.00029, -0.00024, 8e-05, -4e-05, 0.00013, -1e-05, 0.00026, -0.00011
}, {
7e-05, 0.0002, -0.00025, -0.00016, -0.00015, -1e-05, 3e-05, -0.00027, 0.00015, -0.0, -0.00011, -0.00012, -2e-05, 0.00023, -1e-05, -0.00011, 4e-05, 3e-05, -9e-05, 5e-05, 0.00027, 5e-05, -0.00011, -2e-05, 0.00013, -0.00027, -5e-05, -3e-05, 0.00014, 1e-05, -0.00017, 0.00036, 2e-05, -0.00035, 0.00025, -0.00025, -0.00011, -6e-05, -8e-05, 0.00033, 4e-05, -0.00011, -0.00037, -0.0002, -0.00028, 2e-05, 0.00034, 0.00022, -0.00028, 0.0
}, {
-4e-05, 8e-05, -0.00015, 1e-05, 0.00012, 0.00015, -0.00025, 0.00048, 5e-05, -2e-05, 0.00011, 9e-05, -6e-05, -6e-05, -1e-05, -0.00012, -6e-05, 4e-05, -1e-05, -6e-05, 5e-05, 0.00039, -0.00032, 0.00028, 0.00016, -0.00024, -0.00018, -0.00012, -0.0, 4e-05, 0.00023, -0.00022, -2e-05, -3e-05, -0.00013, -0.00014, 0.00015, -0.00015, -7e-05, 0.00027, -0.00016, 0.0, 0.00024, -9e-05, 0.00021, -0.00019, 3e-05, 4e-05, -1e-05, 0.00014
}, {
0.00012, -0.00027, -6e-05, -0.00017, -1e-05, -0.00019, 0.00012, 0.00015, -0.00017, 0.00012, -5e-05, -1e-05, 0.00024, 1e-04, 3e-05, -4e-05, -8e-05, -0.00016, 0.0, -0.0002, -0.00019, 2e-05, -0.00013, -0.00013, 8e-05, -0.0, -0.00011, -1e-04, 0.00017, 0.00014, 0.00039, -2e-05, -7e-05, 0.0, -8e-05, -8e-05, -5e-05, -0.00014, -0.00029, -1e-05, -0.00014, -0.00024, -0.00016, 5e-05, 3e-05, -0.00012, 1e-04, -5e-05, 8e-05, 0.00011
}, {
2e-05, 0.00018, -0.00017, -2e-05, 6e-05, 0.00033, -1e-04, -0.00019, -5e-05, 0.00014, 5e-05, 0.00013, 1e-05, -0.00012, -3e-05, 0.00021, -2e-05, -0.00016, -7e-05, 0.00018, 0.00012, -0.00018, -0.0, 0.00015, -0.0002, -0.00016, -0.00025, -0.00018, -7e-05, -0.0002, 1e-04, 0.00011, -7e-05, 0.00034, 0.00017, -0.00015, 9e-05, -3e-05, 8e-05, -5e-05, -0.00015, -4e-05, -1e-04, 6e-05, 0.00021, -4e-05, -0.00017, -1e-04, 3e-05, -8e-05
}, {
0.00038, -0.00021, 0.00011, 9e-05, -5e-05, -8e-05, 0.0, 0.0002, -0.00015, -6e-05, 9e-05, -0.00014, 3e-05, -2e-05, -0.00034, -7e-05, 0.0004, 9e-05, -9e-05, -9e-05, -4e-05, 3e-05, 0.00011, -0.00012, -0.00026, 0.0003, -0.0, -6e-05, 0.00018, 0.00011, -0.0003, -2e-05, 6e-05, 9e-05, 6e-05, -0.00025, -4e-05, -0.00018, 9e-05, 0.00013, -0.00011, -0.00015, -0.00015, -0.00021, 0.00017, 6e-05, -7e-05, 7e-05, 0.0002, -3e-05
}, {
-1e-05, 0.00014, -0.00035, 0.00013, -0.00018, -1e-05, -1e-05, -0.0002, -0.00018, 0.00014, 7e-05, -1e-05, -0.00033, 0.00019, -4e-05, 0.00015, 0.0002, 0.00013, 1e-05, 9e-05, -0.00035, -3e-05, -0.00014, 6e-05, 0.00011, 1e-04, 2e-05, 4e-05, -0.00022, 1e-05, 3e-05, 0.0, -9e-05, 2e-05, 6e-05, 0.00014, -0.00024, -2e-05, -7e-05, 0.00015, -2e-05, 0.00037, 6e-05, -0.00015, 3e-05, 0.0, 8e-05, -0.0002, 3e-05, -6e-05
}, {
8e-05, -0.0, -7e-05, 0.00026, -9e-05, -0.00019, -0.00021, 0.00025, -6e-05, -5e-05, -4e-05, -1e-05, 7e-05, -3e-05, -6e-05, 5e-05, -0.00022, -3e-05, -0.00024, 1e-05, -0.00017, -0.00011, -0.0004, 6e-05, -6e-05, -0.00022, 5e-05, 0.00011, 1e-05, -3e-05, 1e-05, -0.00013, -0.00017, 4e-05, 2e-05, 2e-05, 2e-05, -5e-05, 0.00039, 1e-05, -0.00015, -7e-05, -1e-05, 1e-04, 1e-05, 2e-05, -0.00021, 4e-05, -6e-05, 1e-05
}, {
-0.00031, 8e-05, -0.00034, 2e-05, -6e-05, 4e-05, -2e-05, 0.00011, 4e-05, -4e-05, -1e-05, 8e-05, 1e-04, -0.0003, -0.0, -5e-05, 0.00018, -7e-05, 2e-05, -3e-05, -8e-05, -0.00019, -0.00013, -7e-05, -1e-05, 9e-05, -0.00011, -7e-05, 9e-05, 0.00011, -1e-05, 0.00015, -8e-05, 4e-05, 0.00021, -0.00042, -0.00014, -9e-05, 0.00017, -0.00016, 9e-05, 0.00023, 0.00022, -0.00017, -9e-05, -0.0003, 0.00049, 0.00018, -0.00037, -2e-05
}, {
6e-05, 2e-05, 0.00022, 5e-05, -8e-05, 0.00011, 4e-05, 2e-05, 9e-05, 2e-05, 0.00019, -0.00015, 0.00034, -0.00029, 0.00011, 0.00014, -6e-05, 8e-05, 0.00043, 0.00011, 0.00026, 0.00042, 0.00018, 0.00017, 8e-05, -0.00011, 8e-05, -0.00011, 4e-05, -1e-04, 0.00029, -9e-05, 1e-04, -4e-05, 4e-05, -0.00017, -0.00033, 1e-04, -2e-05, -8e-05, -3e-05, 0.00028, 9e-05, -0.00033, 7e-05, 0.00013, -0.00035, -0.00016, 1e-05, 6e-05
}, {
-0.00028, -0.0, -7e-05, 3e-05, 7e-05, -8e-05, -0.00025, 0.00016, -6e-05, -8e-05, 0.00025, 0.00012, -5e-05, -0.0002, 9e-05, 7e-05, -8e-05, -0.00026, 7e-05, -8e-05, 0.00016, 8e-05, 5e-05, 3e-05, -6e-05, -0.00019, -0.00022, -7e-05, -0.00025, -0.00024, -0.00011, 0.00013, -1e-04, 6e-05, 0.00017, -0.00036, -4e-05, -7e-05, -0.00011, 0.00043, -7e-05, -0.00012, -0.0, 0.00017, -0.00012, -1e-05, 0.00039, -0.00023, -0.00017, -3e-05
}, {
-1e-04, 0.00011, 4e-05, -4e-05, -7e-05, -0.00017, -1e-05, -6e-05, -6e-05, -9e-05, 4e-05, -0.0002, 2e-05, -0.00027, 1e-04, 0.00016, 7e-05, 5e-05, 1e-05, 7e-05, 5e-05, 0.00025, 0.00019, 3e-05, 0.0, 0.00033, 8e-05, -0.00016, -6e-05, 1e-04, -0.00033, -5e-05, 1e-05, 0.00011, -7e-05, 1e-04, -0.00022, 5e-05, 0.00015, -5e-05, 8e-05, 0.00021, -0.00011, -5e-05, 0.0, 0.00013, -5e-05, -6e-05, -3e-05, 0.00018
}, {
0.00018, -1e-05, 0.00012, -0.00012, -0.00015, 7e-05, -9e-05, 0.00032, -0.00019, -0.0, 0.00027, -0.0003, 0.0002, -0.00029, 0.00016, 5e-05, -5e-05, 1e-05, 0.00011, -0.00015, -0.00028, -0.00033, -0.0004, 6e-05, -8e-05, 0.00019, 3e-05, 0.00025, 6e-05, -4e-05, 0.00018, -0.00014, -0.00022, -0.00012, -0.00022, 0.0, 0.00014, -5e-05, -8e-05, -0.00011, -0.0002, -4e-05, 9e-05, 0.00013, 1e-04, -0.00039, -4e-05, 4e-05, 0.00022, -0.00012
}, {
-7e-05, 0.00018, -2e-05, -0.00019, -4e-05, -0.00012, -3e-05, 0.00012, 6e-05, 0.0, -0.00012, 0.00017, -0.00017, -3e-05, 4e-05, 1e-05, -0.00038, 0.00014, -1e-04, 0.00015, -0.00018, -8e-05, 5e-05, -0.00015, -0.00013, 0.00013, 0.00019, 7e-05, -6e-05, 2e-05, 0.00024, 0.00014, 2e-05, 1e-05, -2e-05, -0.00032, -0.00018, -0.00027, -7e-05, -9e-05, -0.00013, 0.00019, -4e-05, -5e-05, -0.0002, 0.00024, -0.0, 8e-05, 6e-05, -0.00035
} };

const float rnn_b[N_HIDDEN] PROGMEM = {
0.76376, 0.4418, 0.53474, 0.80389, -0.45398, -0.07042, 0.4207, 1.0072, 0.92686, 1.17955, -0.27783, -0.27885, 0.72323, 1.23115, -0.03192, 0.30448, 0.02268, -0.14819, 0.46982, -0.48113, 0.17847, -0.37449, -0.05155, -0.08849, 1.22436, 0.97213, -0.21967, 0.46887, 0.49712, -0.0418, -0.03164, 0.43922, 0.00234, 0.63753, -0.07246, 0.25021, 1.04392, 0.25062, 0.49603, 0.00059, -0.06352, 0.67517, 0.56335, 0.30323, 0.38898, 0.75582, 0.11104, -0.12475, -0.0692, 0.03216
};

const float head_w[N_HIDDEN][N_CLASSES] PROGMEM = { {
-1.5712, 0.28033, 0.90895, -0.23174, -0.17885, 0.54942, -0.82925, 0.75436, 0.91893, -0.25072, 0.48764
}, {
-2.31057, 0.62302, 0.00281, 0.21249, 0.45712, 1.23197, -0.57939, 0.06207, 1.31083, 0.46018, -0.44023
}, {
0.56574, -0.039, 0.20509, -0.35508, -0.71875, -1.19145, -0.65415, 0.703, 0.28358, -0.92251, -0.39106
}, {
-0.11538, -0.46707, -0.85226, -0.09438, -0.17159, -0.73594, 0.18902, -0.43438, -0.90562, -0.2764, 0.36904
}, {
0.29222, -0.0888, 0.29525, 0.22411, -1.16161, 0.20152, 0.2791, -1.87996, 0.33614, -1.93379, -1.49811
}, {
0.45583, 0.17708, -0.56644, 0.33136, 0.16333, 0.05399, 0.98015, 1.11431, -0.34309, -0.35608, -0.88429
}, {
-0.32947, -0.71962, 0.74951, -0.34835, -0.38325, -0.22587, 0.91347, -0.4687, -0.25873, -0.8678, 0.33198
}, {
1.30975, 0.00112, -1.42248, -0.94134, -0.6467, -0.91636, -0.62209, -1.15902, -0.93716, 1.2871, 1.00204
}, {
0.74366, -0.28899, 0.18076, -0.46283, -0.13339, -0.5721, 0.02258, -0.68035, -1.00553, -0.67079, 0.17831
}, {
0.3099, -0.24752, -1.95743, -0.85341, 0.26604, -1.1786, -0.61473, 0.33906, 0.73709, 0.46593, 0.31153
}, {
0.18043, -1.33506, 0.86257, 0.17568, -1.72902, 0.2567, 0.92633, -1.09889, 0.16251, -1.24331, -0.9386
}, {
0.39694, -0.43642, 0.23513, -0.05281, -0.65772, 0.37527, -0.36814, 0.08918, 0.22359, 0.08797, -2.33173
}, {
-0.40428, -0.10517, -0.84127, 0.00511, 0.26013, -0.20681, -0.19424, -1.35289, 0.07174, 0.208, 0.05811
}, {
-1.6456, 0.09065, 0.36738, -0.728, -0.21909, 0.61081, -0.26139, -0.35712, -1.44082, -1.00471, 0.37852
}, {
0.13719, -0.90199, 0.12103, 0.24003, -0.11543, -0.13452, 0.26877, 0.17775, 0.73506, -0.64763, -0.97107
}, {
0.38242, -0.13193, -0.05016, 0.25171, -0.333, 0.29652, 0.14305, 0.00938, -1.51007, -0.17971, -0.53217
}, {
-0.63697, 0.13355, 0.57443, -0.26584, -0.05411, -0.31363, -0.64901, 0.47786, -0.23518, 0.19515, -0.6955
}, {
0.76736, -0.4828, 0.09619, 0.28262, -0.30757, 0.19288, -0.45897, 0.10969, -1.23838, 0.50872, -0.34457
}, {
-0.23227, -1.28026, -0.86356, 0.25573, -1.68791, 0.29039, -0.89249, 0.30714, 0.20843, 0.44372, -0.41709
}, {
0.21241, -1.30585, 0.67488, 0.35332, -1.8689, 0.35981, 0.70534, -1.35294, 0.10644, -1.3688, -1.62252
}, {
0.20054, -0.84647, 0.16544, -0.67758, -0.7382, 0.38742, -0.06911, 0.68308, -0.21027, 0.55668, -0.68873
}, {
0.26741, -0.02836, 0.0946, 0.24151, -0.29289, 0.06071, -0.74071, -1.45443, 0.43109, -1.79125, -1.01853
}, {
0.1397, -0.54032, 0.02332, 0.53599, -0.20312, 1.00934, -0.74512, 0.61226, 0.22083, 0.3026, -1.10367
}, {
-1.2006, 0.51682, 0.77812, -0.31442, 0.16704, -0.43614, -0.06748, 0.18015, 0.34951, -0.79034, 0.21342
}, {
-1.72387, -0.69761, -0.16217, -0.13769, -1.53402, 1.08044, 0.18998, 0.04285, 0.09202, -1.9863, 0.335
}, {
0.73997, 0.44429, 0.1301, 1.02616, -0.0856, -0.72198, -0.22299, -1.39592, -0.30579, -1.26114, 0.62833
}, {
0.06204, -0.06573, 0.54942, 0.34471, -0.13288, 0.59497, -0.63017, 0.33422, 0.13081, -0.13075, -1.40705
}, {
1.24593, 0.33455, -0.13265, -0.50779, 0.3635, 0.1851, 0.77011, -0.03378, -0.39913, -0.03426, -0.68823
}, {
-0.71605, 0.93895, 0.51263, 1.15385, 0.4347, 1.30164, -0.37394, -0.34848, 0.54738, -0.05543, -0.85167
}, {
0.47349, -0.49065, 0.3477, -0.11493, -0.00695, 0.31604, 0.04824, 0.51427, 0.46746, -1.15431, -1.02101
}, {
0.21129, 0.05025, -0.97176, -0.2606, -0.07232, 0.11513, 0.41136, -0.13554, -0.15318, 0.70985, -0.7065
}, {
-0.32629, -1.02189, -0.15572, 0.05248, -1.05648, 0.20259, -0.69677, 0.66217, 0.08001, 0.54322, -0.25882
}, {
-0.22164, -0.25345, -0.60274, -0.14997, -0.33115, 0.06137, 0.64559, 0.65281, -0.01352, 0.04782, -0.7759
}, {
1.00626, 0.27732, 0.28422, 0.64472, 1.70085, 0.17937, 1.33346, -0.44852, -0.19257, 1.041, -0.59403
}, {
-0.48082, 0.60382, -0.32782, -0.17671, 0.42252, -0.1669, 0.31454, 0.30649, 0.31412, -0.26025, -1.03722
}, {
-0.3023, -0.91956, -0.38936, 0.53058, -1.16084, 0.39657, -0.83962, 0.76897, 0.51442, 0.60611, -0.76504
}, {
0.55959, -0.91444, 1.17929, -0.10659, 0.19865, -2.31391, 0.11295, 1.28377, 0.5107, -0.15579, -0.13106
}, {
0.72885, 0.19614, 0.13445, -0.19347, 0.21509, -0.92174, -0.22043, 0.49105, -0.89562, 0.49473, -0.969
}, {
-1.02236, -1.05583, 0.50828, 0.12226, -0.2235, 0.14413, -0.35299, -0.90324, 0.1301, 0.33116, 0.27345
}, {
-1.21051, -1.13221, 0.75373, 0.1443, 1.26763, -0.1654, -0.13651, -1.16057, -0.01267, 0.58548, -0.75309
}, {
-0.86385, -0.89891, -0.16906, 0.21815, 0.77519, 0.2993, 0.54857, -0.25517, 0.53293, -0.04123, -0.88262
}, {
-0.63054, 0.41151, -0.71691, -0.28657, -0.53875, -0.59332, -0.35864, -0.42689, 0.08384, -0.34244, 0.06177
}, {
-0.69466, -0.99873, -0.90279, 0.09398, -0.43008, 0.04913, -0.72477, -0.68637, 0.64261, 0.02033, 0.72713
}, {
0.13174, -0.74067, -0.04703, -0.10251, -1.01977, 0.3512, -1.00409, 0.38694, -0.48382, 0.13924, -0.86227
}, {
-0.51344, 0.24334, -0.01643, -0.35792, 1.14534, -0.21852, -0.74076, -0.41964, -0.57824, 0.49481, -0.27607
}, {
0.36378, 0.50294, -0.21655, -0.82304, 0.57577, -0.07949, 0.58327, -0.30013, -1.24253, -0.2082, 0.18381
}, {
0.39127, 0.07696, -1.35293, -0.20708, 0.40682, -0.66523, 0.39026, -0.29716, 0.12459, -0.44283, -0.07662
}, {
-1.30463, -1.23614, 0.44691, -0.13489, 1.03401, 0.04692, 0.18909, -0.80471, 0.52162, 0.32848, -0.75373
}, {
-0.34488, 0.19024, 0.4245, 0.31961, 0.15777, -0.42091, 0.3144, 0.12008, -0.29973, 0.13484, -1.17522
}, {
0.03255, 0.18723, -0.32213, 0.43287, -0.17669, -0.61074, -0.51747, -0.17859, -0.36735, -0.25105, -1.20942
} };

const float head_b[N_CLASSES] PROGMEM = {
-0.37628, 0.54175, -0.46505, -0.68408, -0.40128, -0.19353, -0.47143, -0.37561, -0.27474, -0.12496, 0.45779
};